{"learner":{"attributes":{"scikit_learn":"{\"_estimator_type\": \"classifier\"}"},"feature_names":[],"feature_types":[],"gradient_booster":{"model":{"cats":{"enc":[],"feature_segments":[],"sorted_idx":[]},"gbtree_model_param":{"num_parallel_tree":"1","num_trees":"300"},"iteration_indptr":[0,1,2,3,4,5,6,7,8,9,10,11,12,13,14,15,16,17,18,19,20,21,22,23,24,25,26,27,28,29,30,31,32,33,34,35,36,37,38,39,40,41,42,43,44,45,46,47,48,49,50,51,52,53,54,55,56,57,58,59,60,61,62,63,64,65,66,67,68,69,70,71,72,73,74,75,76,77,78,79,80,81,82,83,84,85,86,87,88,89,90,91,92,93,94,95,96,97,98,99,100,101,102,103,104,105,106,107,108,109,110,111,112,113,114,115,116,117,118,119,120,121,122,123,124,125,126,127,128,129,130,131,132,133,134,135,136,137,138,139,140,141,142,143,144,145,146,147,148,149,150,151,152,153,154,155,156,157,158,159,160,161,162,163,164,165,166,167,168,169,170,171,172,173,174,175,176,177,178,179,180,181,182,183,184,185,186,187,188,189,190,191,192,193,194,195,196,197,198,199,200,201,202,203,204,205,206,207,208,209,210,211,212,213,214,215,216,217,218,219,220,221,222,223,224,225,226,227,228,229,230,231,232,233,234,235,236,237,238,239,240,241,242,243,244,245,246,247,248,249,250,251,252,253,254,255,256,257,258,259,260,261,262,263,264,265,266,267,268,269,270,271,272,273,274,275,276,277,278,279,280,281,282,283,284,285,286,287,288,289,290,291,292,293,294,295,296,297,298,299,300],"tree_info":[0,0,0,0,0,0,0,0,0,0,0,0,0,0,0,0,0,0,0,0,0,0,0,0,0,0,0,0,0,0,0,0,0,0,0,0,0,0,0,0,0,0,0,0,0,0,0,0,0,0,0,0,0,0,0,0,0,0,0,0,0,0,0,0,0,0,0,0,0,0,0,0,0,0,0,0,0,0,0,0,0,0,0,0,0,0,0,0,0,0,0,0,0,0,0,0,0,0,0,0,0,0,0,0,0,0,0,0,0,0,0,0,0,0,0,0,0,0,0,0,0,0,0,0,0,0,0,0,0,0,0,0,0,0,0,0,0,0,0,0,0,0,0,0,0,0,0,0,0,0,0,0,0,0,0,0,0,0,0,0,0,0,0,0,0,0,0,0,0,0,0,0,0,0,0,0,0,0,0,0,0,0,0,0,0,0,0,0,0,0,0,0,0,0,0,0,0,0,0,0,0,0,0,0,0,0,0,0,0,0,0,0,0,0,0,0,0,0,0,0,0,0,0,0,0,0,0,0,0,0,0,0,0,0,0,0,0,0,0,0,0,0,0,0,0,0,0,0,0,0,0,0,0,0,0,0,0,0,0,0,0,0,0,0,0,0,0,0,0,0,0,0,0,0,0,0,0,0,0,0,0,0,0,0,0,0,0,0,0,0,0,0,0,0,0,0,0,0,0,0],"trees":[{"base_weights":[-1.263639E-3,-9.218074E-2,2.1677783E-1,-1.1549481E-1,1.1330232E-1,1.3306496E-1,4.359822E-1,-1.250874E-1,3.567428E-1,-7.744994E-2,1.875938E-1,4.0678464E-2,2.1534978E-1,3.7305105E-1,9.253376E-1,-1.6580849E-3,-4.252313E-5,5.218395E-3,-3.6207545E-3,1.0728838E-2,-1.341534E-3,3.5454498E-3,1.21736404E-4,7.219378E-5,4.5931744E-3,3.1888005E-3,1.60521E-3,4.945691E-3,1.5892887E-3,-0E0,9.601601E-3],"categories":[],"categories_nodes":[],"categories_segments":[],"categories_sizes":[],"default_left":[0,0,0,0,0,0,0,0,0,0,0,0,0,0,0,0,0,0,0,0,0,0,0,0,0,0,0,0,0,0,0],"id":0,"left_children":[1,3,5,7,9,11,13,15,17,19,21,23,25,27,29,-1,-1,-1,-1,-1,-1,-1,-1,-1,-1,-1,-1,-1,-1,-1,-1],"loss_changes":[1.5120345E2,2.5852577E1,4.0476883E1,2.1812675E1,7.8756857E0,1.2113228E1,1.6972794E1,2.321923E1,1.1803825E1,9.176725E0,1.1259102E1,1.0393379E1,4.2751503E0,1.3518982E1,2.9210243E0,0E0,0E0,0E0,0E0,0E0,0E0,0E0,0E0,0E0,0E0,0E0,0E0,0E0,0E0,0E0,0E0],"parents":[2147483647,0,0,1,1,2,2,3,3,4,4,5,5,6,6,7,7,8,8,9,9,10,10,11,11,12,12,13,13,14,14],"right_children":[2,4,6,8,10,12,14,16,18,20,22,24,26,28,30,-1,-1,-1,-1,-1,-1,-1,-1,-1,-1,-1,-1,-1,-1,-1,-1],"split_conditions":[5.1181793E-1,6.3425465E1,5.4853636E-1,2.8950188E1,7.346651E0,3.3E-1,6.415911E-1,4.9814737E-1,8.468135E-1,-5.754292E0,8.6619215E0,8.461843E0,4.2449192E1,1.47E0,1.6019554E0,-1.6580849E-3,-4.252313E-5,5.218395E-3,-3.6207545E-3,1.0728838E-2,-1.341534E-3,3.5454498E-3,1.21736404E-4,7.219378E-5,4.5931744E-3,3.1888005E-3,1.60521E-3,4.945691E-3,1.5892887E-3,-0E0,9.601601E-3],"split_indices":[0,1,0,8,8,14,0,0,11,8,7,8,1,15,11,0,0,0,0,0,0,0,0,0,0,0,0,0,0,0,0],"split_type":[0,0,0,0,0,0,0,0,0,0,0,0,0,0,0,0,0,0,0,0,0,0,0,0,0,0,0,0,0,0,0],"sum_hessian":[7.629678E3,5.388548E3,2.2411304E3,4.84462E3,5.439274E2,1.6274086E3,6.1372186E2,4.751687E3,9.29334E1,1.4866548E2,3.9526193E2,7.7377875E2,8.536298E2,5.487241E2,6.499779E1,3.547252E3,1.2044349E3,7.7152435E1,1.5780973E1,4.471681E0,1.441938E2,1.9855243E2,1.967095E2,7.206084E2,5.3170353E1,2.8590332E2,5.6772656E2,3.4540884E2,2.0331526E2,1.6030973E0,6.3394688E1],"tree_param":{"num_deleted":"0","num_feature":"19","num_nodes":"31","size_leaf_vector":"1"}},{"base_weights":[-6.222802E-3,-1.0382554E-1,2.0382468E-1,-1.6386782E-1,-1.3951918E-2,1.4151497E-1,5.4397655E-1,-1.8154971E-1,1.0385256E-1,4.2138404E-1,-3.2339595E-2,1.2297539E-1,4.7678423E-1,4.4818476E-1,9.541652E-3,-1.9041935E-3,1.8147015E-3,-3.6669418E-3,2.376455E-3,6.520647E-3,1.7437407E-4,-6.486779E-4,1.9626603E-3,2.5917743E-3,6.47572E-4,6.3655446E-3,7.9713104E-4,4.973689E-3,-4.901453E-3],"categories":[],"categories_nodes":[],"categories_segments":[],"categories_sizes":[],"default_left":[0,0,0,0,0,0,0,0,0,0,0,0,0,0,0,0,0,0,0,0,0,0,0,0,0,0,0,0,0],"id":1,"left_children":[1,3,5,7,9,11,13,15,17,19,21,23,25,27,-1,-1,-1,-1,-1,-1,-1,-1,-1,-1,-1,-1,-1,-1,-1],"loss_changes":[1.564203E2,2.7962833E1,5.042839E1,1.4884598E1,1.6430637E1,1.2022671E1,1.2332085E1,9.515076E0,1.2073713E1,7.037632E0,1.4891517E1,1.5086714E1,5.7721996E0,1.46521E1,0E0,0E0,0E0,0E0,0E0,0E0,0E0,0E0,0E0,0E0,0E0,0E0,0E0,0E0,0E0],"parents":[2147483647,0,0,1,1,2,2,3,3,4,4,5,5,6,6,7,7,8,8,9,9,10,10,11,11,12,12,13,13],"right_children":[2,4,6,8,10,12,14,16,18,20,22,24,26,28,-1,-1,-1,-1,-1,-1,-1,-1,-1,-1,-1,-1,-1,-1,-1],"split_conditions":[5.100258E-1,4.908321E-1,5.6499535E-1,2.6287794E1,3.52207E1,1.8999378E1,6.415911E-1,6.911875E1,4E-2,4.8901916E0,6.1762814E1,4.1343674E1,5.33E0,3.2616243E0,9.541652E-3,-1.9041935E-3,1.8147015E-3,-3.6669418E-3,2.376455E-3,6.520647E-3,1.7437407E-4,-6.486779E-4,1.9626603E-3,2.5917743E-3,6.47572E-4,6.3655446E-3,7.9713104E-4,4.973689E-3,-4.901453E-3],"split_indices":[0,0,0,8,1,8,0,1,15,10,1,1,13,9,0,0,0,0,0,0,0,0,0,0,0,0,0,0,0],"split_type":[0,0,0,0,0,0,0,0,0,0,0,0,0,0,0,0,0,0,0,0,0,0,0,0,0,0,0,0,0],"sum_hessian":[7.6306226E3,5.2137314E3,2.4168916E3,3.117941E3,2.0957903E3,2.047583E3,3.693085E2,2.9288787E3,1.8906212E2,8.0953964E1,2.0148364E3,1.9457064E3,1.01876595E2,3.0476062E2,6.454789E1,2.8626416E3,6.623728E1,3.9430435E1,1.4963168E2,4.917034E1,3.1783619E1,1.7689414E3,2.4589503E2,5.754215E2,1.3702849E3,6.998992E1,3.1886667E1,2.914874E2,1.3273203E1],"tree_param":{"num_deleted":"0","num_feature":"19","num_nodes":"29","size_leaf_vector":"1"}},{"base_weights":[3.3648477E-3,-4.7380544E-2,2.0931578E-1,2.4282977E-2,-1.1876681E-1,3.7836692E-1,1.1412388E-1,6.9969214E-2,-1.09548464E-1,-1.6567427E-1,-4.2595427E-2,4.6971172E-1,1.4279494E-1,-3.430598E-1,1.3793167E-1,2.410877E-3,4.1741694E-4,-1.3518349E-3,3.4094527E-3,-9.44041E-4,-2.475741E-3,2.5371688E-3,-7.260958E-4,6.7156553E-3,2.089017E-3,-1.2511826E-3,3.0663859E-3,-0E0,-8.478797E-3,1.2057048E-3,5.7065804E-3],"categories":[],"categories_nodes":[],"categories_segments":[],"categories_sizes":[],"default_left":[0,0,0,0,0,0,0,0,0,0,0,0,0,0,0,0,0,0,0,0,0,0,0,0,0,0,0,0,0,0,0],"id":2,"left_children":[1,3,5,7,9,11,13,15,17,19,21,23,25,27,29,-1,-1,-1,-1,-1,-1,-1,-1,-1,-1,-1,-1,-1,-1,-1,-1],"loss_changes":[7.9706894E1,3.1320745E1,2.369667E1,1.8563944E1,1.07275505E1,1.0847099E1,1.0466361E1,1.0677328E1,8.76608E0,1.0630569E1,1.0339467E1,1.9071114E1,7.1269155E0,7.3992596E0,6.1364346E0,0E0,0E0,0E0,0E0,0E0,0E0,0E0,0E0,0E0,0E0,0E0,0E0,0E0,0E0,0E0,0E0],"parents":[2147483647,0,0,1,1,2,2,3,3,4,4,5,5,6,6,7,7,8,8,9,9,10,10,11,11,12,12,13,13,14,14],"right_children":[2,4,6,8,10,12,14,16,18,20,22,24,26,28,30,-1,-1,-1,-1,-1,-1,-1,-1,-1,-1,-1,-1,-1,-1,-1,-1],"split_conditions":[1.3418258E0,1E0,-9.0026245E-2,9.2E-1,6E-1,-2.203206E0,-7.338974E-2,-3.0441358E0,7.265812E0,4E-1,6.7E-1,2.26E0,-1.3021225E0,-9.539166E-1,5.2868986E0,2.410877E-3,4.1741694E-4,-1.3518349E-3,3.4094527E-3,-9.44041E-4,-2.475741E-3,2.5371688E-3,-7.260958E-4,6.7156553E-3,2.089017E-3,-1.2511826E-3,3.0663859E-3,-0E0,-8.478797E-3,1.2057048E-3,5.7065804E-3],"split_indices":[11,18,5,15,14,7,5,7,3,15,14,15,6,7,11,0,0,0,0,0,0,0,0,0,0,0,0,0,0,0,0],"split_type":[0,0,0,0,0,0,0,0,0,0,0,0,0,0,0,0,0,0,0,0,0,0,0,0,0,0,0,0,0,0,0],"sum_hessian":[7.607287E3,6.100769E3,1.506518E3,3.0381401E3,3.062629E3,5.3678595E2,9.6973206E2,2.2712327E3,7.6690753E2,1.8858291E3,1.1767999E3,3.8230972E2,1.5447624E2,4.4592636E1,9.251394E2,3.1445593E2,1.9567767E3,7.290416E2,3.786595E1,1.01718164E3,8.686474E2,1.03801704E2,1.0729982E3,2.115763E2,1.7073344E2,5.6484116E1,9.799213E1,2.8672554E1,1.5920081E1,8.9413446E2,3.1004927E1],"tree_param":{"num_deleted":"0","num_feature":"19","num_nodes":"31","size_leaf_vector":"1"}},{"base_weights":[1.0531857E-3,-9.919347E-2,2.0685092E-1,-1.5977053E-1,-3.0482893E-3,1.5317385E-1,4.7268045E-1,-1.7862087E-1,2.2473094E-1,-3.2384746E-2,2.1363252E-1,8.949534E-2,2.7342862E-1,4.119707E-1,1.0862017E0,-7.814913E-4,-2.255105E-3,4.6111005E-3,-4.169364E-3,1.6175744E-3,-7.828197E-4,-5.531742E-4,3.2138207E-3,2.6372643E-3,3.4830478E-4,2.9478075E-3,-7.6055E-4,5.40192E-3,2.6193908E-3,1.1399348E-2,-0E0],"categories":[],"categories_nodes":[],"categories_segments":[],"categories_sizes":[],"default_left":[0,0,0,0,0,0,0,0,0,0,0,0,0,0,0,0,0,0,0,0,0,0,0,0,0,0,0,0,0,0,0],"id":3,"left_children":[1,3,5,7,9,11,13,15,17,19,21,23,25,27,29,-1,-1,-1,-1,-1,-1,-1,-1,-1,-1,-1,-1,-1,-1,-1,-1],"loss_changes":[1.5730106E2,2.9658424E1,3.4888336E1,2.2755325E1,1.2466958E1,1.5556679E1,1.3092308E1,1.3756218E1,2.2408155E1,1.5592179E1,7.0598373E0,1.2748299E1,5.603039E0,6.28318E0,2.396305E0,0E0,0E0,0E0,0E0,0E0,0E0,0E0,0E0,0E0,0E0,0E0,0E0,0E0,0E0,0E0,0E0],"parents":[2147483647,0,0,1,1,2,2,3,3,4,4,5,5,6,6,7,7,8,8,9,9,10,10,11,11,12,12,13,13,14,14],"right_children":[2,4,6,8,10,12,14,16,18,20,22,24,26,28,30,-1,-1,-1,-1,-1,-1,-1,-1,-1,-1,-1,-1,-1,-1,-1,-1],"split_conditions":[5.090071E-1,4.908321E-1,5.599675E-1,6.807171E1,6.154663E1,7.5E-1,6.791716E-1,5.654773E-1,2.04E0,-1.236462E0,3E-2,4.071502E1,4.05E0,1.35E0,-7.113414E0,-7.814913E-4,-2.255105E-3,4.6111005E-3,-4.169364E-3,1.6175744E-3,-7.828197E-4,-5.531742E-4,3.2138207E-3,2.6372643E-3,3.4830478E-4,2.9478075E-3,-7.6055E-4,5.40192E-3,2.6193908E-3,1.1399348E-2,-0E0],"split_indices":[0,0,0,1,1,14,0,9,14,3,15,1,15,15,2,0,0,0,0,0,0,0,0,0,0,0,0,0,0,0,0],"split_type":[0,0,0,0,0,0,0,0,0,0,0,0,0,0,0,0,0,0,0,0,0,0,0,0,0,0,0,0,0,0,0],"sum_hessian":[7.6154653E3,5.118404E3,2.4970618E3,3.13282E3,1.9855837E3,2.0833083E3,4.1375342E2,2.98991E3,1.4290996E2,1.7543748E3,2.3120895E2,1.3697753E3,7.1353296E2,3.8102298E2,3.2730453E1,9.598568E2,2.0300532E3,1.0598729E2,3.6922665E1,3.3031744E2,1.4240573E3,6.375778E1,1.6745117E2,3.2093384E2,1.0488414E3,6.754404E2,3.8092503E1,1.9904613E2,1.8197684E2,3.1377525E1,1.3529284E0],"tree_param":{"num_deleted":"0","num_feature":"19","num_nodes":"31","size_leaf_vector":"1"}},{"base_weights":[-2.9084103E-3,-6.105069E-2,2.222088E-1,1.5279133E-2,-1.3816263E-1,4.9895912E-1,1.1670193E-1,7.2255984E-2,-9.745967E-2,-7.0827164E-2,-2.0378914E-1,8.425736E-1,4.0591732E-1,-6.3552403E-1,1.2809446E-1,1.1254159E-3,-5.9843005E-4,-1.0774584E-3,6.0111885E-3,-9.3068747E-4,1.4798947E-3,-2.5560914E-3,-1.0213417E-4,-0E0,9.196757E-3,5.7332534E-3,1.6695955E-3,-9.233037E-3,-0E0,1.0483995E-2,1.1997193E-3],"categories":[],"categories_nodes":[],"categories_segments":[],"categories_sizes":[],"default_left":[0,0,0,0,0,0,0,0,0,0,0,0,0,0,0,0,0,0,0,0,0,0,0,0,0,0,0,0,0,0,0],"id":4,"left_children":[1,3,5,7,9,11,13,15,17,19,21,23,25,27,29,-1,-1,-1,-1,-1,-1,-1,-1,-1,-1,-1,-1,-1,-1,-1,-1],"loss_changes":[9.9642715E1,3.581608E1,4.48657E1,1.9532066E1,1.3055019E1,1.1744339E1,9.389113E0,1.0858989E1,6.9394894E0,7.285757E0,1.4999603E1,6.0559425E0,1.2781113E1,3.1902099E0,6.9661484E0,0E0,0E0,0E0,0E0,0E0,0E0,0E0,0E0,0E0,0E0,0E0,0E0,0E0,0E0,0E0,0E0],"parents":[2147483647,0,0,1,1,2,2,3,3,4,4,5,5,6,6,7,7,8,8,9,9,10,10,11,11,12,12,13,13,14,14],"right_children":[2,4,6,8,10,12,14,16,18,20,22,24,26,28,30,-1,-1,-1,-1,-1,-1,-1,-1,-1,-1,-1,-1,-1,-1,-1,-1],"split_conditions":[1.3154944E0,1E0,-1.4322065E-1,1.2249488E-2,6.2411857E-1,-5.2102554E-1,-3.966437E-1,9.5E-1,7.265812E0,1.1E0,1.2486701E1,1.4463363E0,1.78E0,-1.4397163E1,-5E0,1.1254159E-3,-5.9843005E-4,-1.0774584E-3,6.0111885E-3,-9.3068747E-4,1.4798947E-3,-2.5560914E-3,-1.0213417E-4,-0E0,9.196757E-3,5.7332534E-3,1.6695955E-3,-9.233037E-3,-0E0,1.0483995E-2,1.1997193E-3],"split_indices":[11,18,5,2,9,5,12,15,3,14,8,11,15,8,18,0,0,0,0,0,0,0,0,0,0,0,0,0,0,0,0],"split_type":[0,0,0,0,0,0,0,0,0,0,0,0,0,0,0,0,0,0,0,0,0,0,0,0,0,0,0,0,0,0,0],"sum_hessian":[7.621047E3,6.0614277E3,1.5596191E3,3.0404507E3,3.0209773E3,4.257961E2,1.133823E3,2.0260814E3,1.0143692E3,1.500648E3,1.5203293E3,8.500455E1,3.4079156E2,1.397144E1,1.1198516E3,1.5586218E3,4.674595E2,1.0027276E3,1.1641593E1,1.3673801E3,1.3326779E2,1.1947019E3,3.2562735E2,6.8167667E0,7.818778E1,1.9629128E2,1.445003E2,9.309142E0,4.662298E0,6.479215E0,1.1133723E3],"tree_param":{"num_deleted":"0","num_feature":"19","num_nodes":"31","size_leaf_vector":"1"}},{"base_weights":[-6.0929935E-3,-1.09096624E-1,2.181117E-1,-1.730274E-1,-2.0103106E-2,1.509237E-1,4.7822988E-1,-2.2706036E-1,-2.840784E-3,-4.913493E-2,1.5841322E-1,2.7752143E-1,9.896775E-2,4.1117427E-1,8.7391996E-1,-1.3234632E-3,-2.875278E-3,3.4951295E-3,-5.453135E-4,1.4843818E-3,-8.423063E-4,1.9721424E-3,-3.330693E-3,3.808852E-3,2.3507865E-4,6.131875E-4,4.2307875E-3,6.1968756E-3,2.5681609E-3,-2.6350566E-3,9.2426995E-3],"categories":[],"categories_nodes":[],"categories_segments":[],"categories_sizes":[],"default_left":[0,0,0,0,0,0,0,0,0,0,0,0,0,0,0,0,0,0,0,0,0,0,0,0,0,0,0,0,0,0,0],"id":5,"left_children":[1,3,5,7,9,11,13,15,17,19,21,23,25,27,29,-1,-1,-1,-1,-1,-1,-1,-1,-1,-1,-1,-1,-1,-1,-1,-1],"loss_changes":[1.7629759E2,2.9595596E1,4.119844E1,2.7731613E1,1.12986355E1,1.2161678E1,1.0971207E1,1.2696892E1,1.3207894E1,1.3114766E1,5.776308E0,1.4028809E1,1.6134386E1,1.2454689E1,4.9805145E0,0E0,0E0,0E0,0E0,0E0,0E0,0E0,0E0,0E0,0E0,0E0,0E0,0E0,0E0,0E0,0E0],"parents":[2147483647,0,0,1,1,2,2,3,3,4,4,5,5,6,6,7,7,8,8,9,9,10,10,11,11,12,12,13,13,14,14],"right_children":[2,4,6,8,10,12,14,16,18,20,22,24,26,28,30,-1,-1,-1,-1,-1,-1,-1,-1,-1,-1,-1,-1,-1,-1,-1,-1],"split_conditions":[5.100258E-1,4.8990375E-1,5.5528873E-1,8.461843E0,6.0906174E1,4.1893074E1,6.415911E-1,6.0530466E-1,5.138649E-2,-3.120697E0,4E0,1.46E0,1.5148976E1,7.4E-1,1.6498065E0,-1.3234632E-3,-2.875278E-3,3.4951295E-3,-5.453135E-4,1.4843818E-3,-8.423063E-4,1.9721424E-3,-3.330693E-3,3.808852E-3,2.3507865E-4,6.131875E-4,4.2307875E-3,6.1968756E-3,2.5681609E-3,-2.6350566E-3,9.2426995E-3],"split_indices":[0,0,0,8,1,1,0,9,7,7,17,15,8,15,11,0,0,0,0,0,0,0,0,0,0,0,0,0,0,0,0],"split_type":[0,0,0,0,0,0,0,0,0,0,0,0,0,0,0,0,0,0,0,0,0,0,0,0,0,0,0,0,0,0,0],"sum_hessian":[7.634607E3,5.235029E3,2.3995784E3,3.03886E3,2.1961685E3,1.9125703E3,4.8700815E2,2.3015813E3,7.3727893E2,1.8950334E3,3.0113498E2,5.4839685E2,1.3641735E3,4.2208502E2,6.492313E1,9.0575476E2,1.3958265E3,9.037307E1,6.469059E2,2.8057413E2,1.6144594E3,2.8209647E2,1.9038506E1,3.8627658E2,1.6212025E2,1.2270967E3,1.3707681E2,1.7422594E2,2.4785909E2,1.5512769E0,6.337185E1],"tree_param":{"num_deleted":"0","num_feature":"19","num_nodes":"31","size_leaf_vector":"1"}},{"base_weights":[3.844766E-3,-9.094298E-2,2.0987597E-1,-1.4457098E-1,-1.9288873E-3,1.3541614E-1,4.282237E-1,-1.6090977E-1,1.01122476E-1,-3.4940854E-2,2.112259E-1,2.6412654E-1,8.909319E-2,3.5399425E-1,8.002392E-1,-1.1281387E-3,-2.421351E-3,2.8382957E-3,-2.4559884E-3,1.1783475E-3,-7.936458E-4,-1.5112241E-3,2.4821435E-3,3.1875893E-3,-1.9963682E-5,3.122556E-4,1.929375E-3,3.909635E-3,3.029672E-4,-3.7967165E-3,8.409969E-3],"categories":[],"categories_nodes":[],"categories_segments":[],"categories_sizes":[],"default_left":[0,0,0,0,0,0,0,0,0,0,0,0,0,0,0,0,0,0,0,0,0,0,0,0,0,0,0,0,0,0,0],"id":6,"left_children":[1,3,5,7,9,11,13,15,17,19,21,23,25,27,29,-1,-1,-1,-1,-1,-1,-1,-1,-1,-1,-1,-1,-1,-1,-1,-1],"loss_changes":[1.48867E2,2.473993E1,3.839396E1,1.3124168E1,1.369423E1,1.0322861E1,1.5036125E1,1.1499695E1,1.283681E1,1.1591184E1,3.660615E0,7.1403923E0,7.763632E0,5.6785355E0,5.7700768E0,0E0,0E0,0E0,0E0,0E0,0E0,0E0,0E0,0E0,0E0,0E0,0E0,0E0,0E0,0E0,0E0],"parents":[2147483647,0,0,1,1,2,2,3,3,4,4,5,5,6,6,7,7,8,8,9,9,10,10,11,11,12,12,13,13,14,14],"right_children":[2,4,6,8,10,12,14,16,18,20,22,24,26,28,30,-1,-1,-1,-1,-1,-1,-1,-1,-1,-1,-1,-1,-1,-1,-1,-1],"split_conditions":[5.100258E-1,4.9174526E-1,5.4853636E-1,6.674428E1,6.0906174E1,4.1343674E1,6.191975E-1,8.8469684E-1,1.51E0,-1.0470984E0,1E0,4.8901916E0,6.8E-1,3.7445583E0,3.2615015E-1,-1.1281387E-3,-2.421351E-3,2.8382957E-3,-2.4559884E-3,1.1783475E-3,-7.936458E-4,-1.5112241E-3,2.4821435E-3,3.1875893E-3,-1.9963682E-5,3.122556E-4,1.929375E-3,3.909635E-3,3.029672E-4,-3.7967165E-3,8.409969E-3],"split_indices":[0,0,0,1,1,1,0,9,14,3,17,10,14,11,9,0,0,0,0,0,0,0,0,0,0,0,0,0,0,0,0],"split_type":[0,0,0,0,0,0,0,0,0,0,0,0,0,0,0,0,0,0,0,0,0,0,0,0,0,0,0,0,0,0,0],"sum_hessian":[7.612734E3,5.21141E3,2.4013237E3,3.2443286E3,1.9670814E3,1.796508E3,6.0481573E2,3.0464949E3,1.9783383E2,1.708798E3,2.5828345E2,4.6724765E2,1.3292604E3,5.0970404E2,9.511172E1,1.9242057E3,1.1222891E3,1.3168729E2,6.6146545E1,3.7913086E2,1.3296671E3,2.0847662E1,2.3743579E2,3.9045352E2,7.6794136E1,8.6144696E2,4.6781342E2,4.5431247E2,5.539156E1,1.8012265E0,9.3310486E1],"tree_param":{"num_deleted":"0","num_feature":"19","num_nodes":"31","size_leaf_vector":"1"}},{"base_weights":[5.840083E-3,2.391156E-1,-3.4230076E-2,5.6251687E-1,1.3306491E-1,-5.6917004E-2,1.3230512E-1,8.396608E-1,3.843582E-1,2.0726044E-1,-1.8556912E-1,-6.882954E-2,1.9324279E-1,4.3650415E-2,3.573983E-1,9.423019E-3,-1.1446675E-3,6.6471617E-3,1.5888972E-3,1.892977E-3,1.18697E-2,-2.9430434E-3,4.6862517E-3,-3.7209498E-4,-1.9457263E-3,-1.2598719E-3,2.9323273E-3,2.0079163E-3,-4.5103143E-4,4.71532E-3,1.7078432E-3],"categories":[],"categories_nodes":[],"categories_segments":[],"categories_sizes":[],"default_left":[0,0,0,0,0,0,0,0,0,0,0,0,0,0,0,0,0,0,0,0,0,0,0,0,0,0,0,0,0,0,0],"id":7,"left_children":[1,3,5,7,9,11,13,15,17,19,21,23,25,27,29,-1,-1,-1,-1,-1,-1,-1,-1,-1,-1,-1,-1,-1,-1,-1,-1],"loss_changes":[7.179875E1,3.778785E1,2.4622673E1,1.1719551E1,2.0269634E1,1.7056637E1,1.5105201E1,1.1209679E1,9.926758E0,1.0414892E1,1.1458767E1,2.1622078E1,8.488246E0,8.040667E0,3.8087292E0,0E0,0E0,0E0,0E0,0E0,0E0,0E0,0E0,0E0,0E0,0E0,0E0,0E0,0E0,0E0,0E0],"parents":[2147483647,0,0,1,1,2,2,3,3,4,4,5,5,6,6,7,7,8,8,9,9,10,10,11,11,12,12,13,13,14,14],"right_children":[2,4,6,8,10,12,14,16,18,20,22,24,26,28,30,-1,-1,-1,-1,-1,-1,-1,-1,-1,-1,-1,-1,-1,-1,-1,-1],"split_conditions":[-2.2430108E0,2.9161956E0,1.5397296E0,-4.6596627E0,-1.0805649E-1,2.6287794E1,1.0157337E1,-9.965293E-2,2.1952183E0,2.7811594E0,3.7627542E0,4.0034204E0,1.5E-1,1.9248444E0,4.6427145E0,9.423019E-3,-1.1446675E-3,6.6471617E-3,1.5888972E-3,1.892977E-3,1.18697E-2,-2.9430434E-3,4.6862517E-3,-3.7209498E-4,-1.9457263E-3,-1.2598719E-3,2.9323273E-3,2.0079163E-3,-4.5103143E-4,4.71532E-3,1.7078432E-3],"split_indices":[6,10,11,7,12,8,8,12,10,2,8,10,15,10,10,0,0,0,0,0,0,0,0,0,0,0,0,0,0,0,0],"split_type":[0,0,0,0,0,0,0,0,0,0,0,0,0,0,0,0,0,0,0,0,0,0,0,0,0,0,0,0,0,0,0],"sum_hessian":[7.6554863E3,1.1244314E3,6.5310547E3,2.7321753E2,8.512139E2,5.7544526E3,7.766023E2,1.0180715E2,1.7141037E2,6.935539E2,1.5766003E2,5.4980825E3,2.5636993E2,5.620607E2,2.1454155E2,9.288755E1,8.919598E0,7.2691216E1,9.8719154E1,6.844125E2,9.141389E0,1.3744398E2,2.0216043E1,4.4017417E3,1.0963412E3,5.8638485E1,1.9773145E2,2.060264E2,3.5603436E2,1.2790327E2,8.6638275E1],"tree_param":{"num_deleted":"0","num_feature":"19","num_nodes":"31","size_leaf_vector":"1"}},{"base_weights":[-8.722402E-3,-9.4533004E-2,2.1228549E-1,-1.5709928E-1,-7.2076465E-3,1.2917855E-1,4.1147417E-1,-1.8225487E-1,4.9058203E-2,-2.6149431E-2,1.8774712E-1,5.732178E-2,2.9800338E-1,3.6494344E-1,7.8078496E-1,-3.1845241E-3,-1.4267322E-3,1.2783735E-3,-1.4661545E-3,1.0166876E-3,-6.019948E-4,-3.2195894E-4,3.9913813E-3,1.3307447E-3,-6.9737696E-4,1.8417819E-3,4.3466757E-3,5.2803443E-3,2.119966E-3,8.840523E-3,6.964248E-4],"categories":[],"categories_nodes":[],"categories_segments":[],"categories_sizes":[],"default_left":[0,0,0,0,0,0,0,0,0,0,0,0,0,0,0,0,0,0,0,0,0,0,0,0,0,0,0,0,0,0,0],"id":8,"left_children":[1,3,5,7,9,11,13,15,17,19,21,23,25,27,29,-1,-1,-1,-1,-1,-1,-1,-1,-1,-1,-1,-1,-1,-1,-1,-1],"loss_changes":[1.4396642E2,2.975069E1,3.4474068E1,1.6659874E1,8.320917E0,1.784943E1,8.941002E0,1.476841E1,5.3129E0,9.100144E0,9.633358E0,1.02963705E1,6.131531E0,1.2927704E1,3.7135544E0,0E0,0E0,0E0,0E0,0E0,0E0,0E0,0E0,0E0,0E0,0E0,0E0,0E0,0E0,0E0,0E0],"parents":[2147483647,0,0,1,1,2,2,3,3,4,4,5,5,6,6,7,7,8,8,9,9,10,10,11,11,12,12,13,13,14,14],"right_children":[2,4,6,8,10,12,14,16,18,20,22,24,26,28,30,-1,-1,-1,-1,-1,-1,-1,-1,-1,-1,-1,-1,-1,-1,-1,-1],"split_conditions":[5.1383126E-1,4.912699E-1,5.4853636E-1,6.3702557E1,2.77032E0,8.8E-1,6.415911E-1,4.6947968E-1,1.51E0,-1.0470984E0,6.2687702E1,-1.9655291E0,7.720567E-2,7.4E-1,8.32E0,-3.1845241E-3,-1.4267322E-3,1.2783735E-3,-1.4661545E-3,1.0166876E-3,-6.019948E-4,-3.2195894E-4,3.9913813E-3,1.3307447E-3,-6.9737696E-4,1.8417819E-3,4.3466757E-3,5.2803443E-3,2.119966E-3,8.840523E-3,6.964248E-4],"split_indices":[0,0,0,1,3,14,0,0,14,3,1,2,4,15,15,0,0,0,0,0,0,0,0,0,0,0,0,0,0,0,0],"split_type":[0,0,0,0,0,0,0,0,0,0,0,0,0,0,0,0,0,0,0,0,0,0,0,0,0,0,0,0,0,0,0],"sum_hessian":[7.5933286E3,5.4737197E3,2.1196086E3,3.1813315E3,2.2923882E3,1.5014714E3,6.1813727E2,2.8398875E3,3.4144403E2,2.0956375E3,1.967508E2,1.0592332E3,4.4223822E2,5.549068E2,6.3230488E1,6.3061884E2,2.2092686E3,2.4757362E2,9.387042E1,4.338178E2,1.6618196E3,9.4937416E1,1.0181337E2,6.684686E2,3.9076453E2,2.4783414E2,1.9440408E2,2.6300983E2,2.9189694E2,5.356034E1,9.670148E0],"tree_param":{"num_deleted":"0","num_feature":"19","num_nodes":"31","size_leaf_vector":"1"}},{"base_weights":[8.36287E-3,-1.3387239E-1,1.6733454E-1,-1.69368E-1,-2.55349E-2,1.10248424E-1,4.4196868E-1,-3.0829617E-1,-1.3781019E-1,7.392751E-2,-1.2647727E-1,6.41223E-2,2.0275524E-1,3.830331E-1,8.9924475E-3,-2.1428E-3,-4.9362103E-3,-1.9832312E-3,-1.8512474E-4,2.388673E-4,3.9820997E-3,1.3853482E-3,-2.07605E-3,7.814951E-3,5.3476944E-4,2.728013E-3,1.9632277E-4,5.50718E-3,2.3710472E-3],"categories":[],"categories_nodes":[],"categories_segments":[],"categories_sizes":[],"default_left":[0,0,0,0,0,0,0,0,0,0,0,0,0,0,0,0,0,0,0,0,0,0,0,0,0,0,0,0,0],"id":9,"left_children":[1,3,5,7,9,11,13,15,17,19,21,23,25,27,-1,-1,-1,-1,-1,-1,-1,-1,-1,-1,-1,-1,-1,-1,-1],"loss_changes":[1.7333386E2,1.533931E1,5.6143044E1,1.2784233E1,1.0179129E1,1.2528431E1,1.4730164E1,8.745277E0,1.7710632E1,7.7272654E0,1.0992437E1,1.4470589E1,1.2416321E1,1.2516884E1,0E0,0E0,0E0,0E0,0E0,0E0,0E0,0E0,0E0,0E0,0E0,0E0,0E0,0E0,0E0],"parents":[2147483647,0,0,1,1,2,2,3,3,4,4,5,5,6,6,7,7,8,8,9,9,10,10,11,11,12,12,13,13],"right_children":[2,4,6,8,10,12,14,16,18,20,22,24,26,28,-1,-1,-1,-1,-1,-1,-1,-1,-1,-1,-1,-1,-1,-1,-1],"split_conditions":[4.9814737E-1,7.51105E0,5.4853636E-1,4.7016472E-1,4.0034204E0,7.6E-1,6.415911E-1,6.3314265E-1,3.0294365E-1,3.4183226E0,-1.6410534E-1,4.1112074E-1,4.1234952E-1,7.3E-1,8.9924475E-3,-2.1428E-3,-4.9362103E-3,-1.9832312E-3,-1.8512474E-4,2.388673E-4,3.9820997E-3,1.3853482E-3,-2.07605E-3,7.814951E-3,5.3476944E-4,2.728013E-3,1.9632277E-4,5.50718E-3,2.3710472E-3],"split_indices":[0,8,0,0,10,14,0,4,4,6,6,10,4,15,0,0,0,0,0,0,0,0,0,0,0,0,0,0,0],"split_type":[0,0,0,0,0,0,0,0,0,0,0,0,0,0,0,0,0,0,0,0,0,0,0,0,0,0,0,0,0],"sum_hessian":[7.660321E3,4.039828E3,3.6204927E3,3.0350645E3,1.0047636E3,3.002773E3,6.1771954E2,5.526936E2,2.4823708E3,5.0137155E2,5.0339206E2,2.0131597E3,9.896134E2,5.5238776E2,6.533182E1,3.7311765E2,1.7957593E2,1.6405209E3,8.418499E2,4.388783E2,6.2493267E1,1.1476359E2,3.8862848E2,2.5945911E1,1.9872137E3,7.1115173E2,2.784617E2,2.5126317E2,3.0112457E2],"tree_param":{"num_deleted":"0","num_feature":"19","num_nodes":"29","size_leaf_vector":"1"}},{"base_weights":[2.141974E-3,-7.6893464E-2,2.3110217E-1,-2.2290532E-1,-4.0709965E-2,1.631924E-1,5.22117E-1,-1.900028E-1,-6.2516916E-1,-8.358406E-2,3.4665618E-2,2.794063E-1,8.621707E-2,4.276283E-1,9.785216E-1,2.6975842E-3,-2.0627482E-3,-4.1412062E-4,-7.4519473E-3,-6.8096124E-4,-2.4980973E-3,-5.1427763E-3,4.235742E-4,3.8511483E-3,1.3692094E-3,-1.2497521E-3,1.5789623E-3,7.1682557E-3,2.6770981E-3,-0E0,1.0072848E-2],"categories":[],"categories_nodes":[],"categories_segments":[],"categories_sizes":[],"default_left":[0,0,0,0,0,0,0,0,0,0,0,0,0,0,0,0,0,0,0,0,0,0,0,0,0,0,0,0,0,0,0],"id":10,"left_children":[1,3,5,7,9,11,13,15,17,19,21,23,25,27,29,-1,-1,-1,-1,-1,-1,-1,-1,-1,-1,-1,-1,-1,-1,-1,-1],"loss_changes":[1.3867628E2,2.9765606E1,3.8028915E1,1.381802E1,1.48097315E1,1.3908073E1,1.3651825E1,7.85651E0,4.881613E0,7.1640224E0,6.5317087E0,8.889236E0,1.4773825E1,1.3002113E1,2.046463E0,0E0,0E0,0E0,0E0,0E0,0E0,0E0,0E0,0E0,0E0,0E0,0E0,0E0,0E0,0E0,0E0],"parents":[2147483647,0,0,1,1,2,2,3,3,4,4,5,5,6,6,7,7,8,8,9,9,10,10,11,11,12,12,13,13,14,14],"right_children":[2,4,6,8,10,12,14,16,18,20,22,24,26,28,30,-1,-1,-1,-1,-1,-1,-1,-1,-1,-1,-1,-1,-1,-1,-1,-1],"split_conditions":[5.158174E-1,4.7369888E-1,5.6499535E-1,4.3429023E-1,4.9814737E-1,-2.012483E-1,6.415911E-1,3.7267685E-1,4.547247E-1,1.84E0,-7.0717983E0,-1.4883548E-1,-2.9088857E-2,6.4E-1,1.6019554E0,2.6975842E-3,-2.0627482E-3,-4.1412062E-4,-7.4519473E-3,-6.8096124E-4,-2.4980973E-3,-5.1427763E-3,4.235742E-4,3.8511483E-3,1.3692094E-3,-1.2497521E-3,1.5789623E-3,7.1682557E-3,2.6770981E-3,-0E0,1.0072848E-2],"split_indices":[0,0,0,12,0,4,0,9,0,15,3,12,4,15,11,0,0,0,0,0,0,0,0,0,0,0,0,0,0,0,0],"split_type":[0,0,0,0,0,0,0,0,0,0,0,0,0,0,0,0,0,0,0,0,0,0,0,0,0,0,0,0,0,0,0],"sum_hessian":[7.6508936E3,5.685322E3,1.965572E3,1.121551E3,4.5637705E3,1.5989961E3,3.665759E2,1.0417715E3,7.977945E1,2.9173904E3,1.6463805E3,6.2984045E2,9.691557E2,3.0872583E2,5.7850082E1,3.2444695E1,1.00932684E3,1.5485532E1,6.429392E1,2.6768154E3,2.4057477E2,1.9133657E1,1.6272468E3,3.5560016E2,2.7424026E2,2.4167047E2,7.274852E2,1.0522265E2,2.0350317E2,1.352286E0,5.64978E1],"tree_param":{"num_deleted":"0","num_feature":"19","num_nodes":"31","size_leaf_vector":"1"}},{"base_weights":[-3.8887612E-3,-1.19370274E-1,1.2657687E-1,-2.0175071E-1,-6.645407E-2,7.4926384E-2,3.7695053E-1,-1.5068392E-1,-4.1047367E-1,-8.776242E-2,3.8860884E-1,-4.7621563E-2,1.1263964E-1,3.296692E-1,1.1709287E0,-1.7780487E-3,6.684561E-4,-3.5017417E-4,-4.9548484E-3,-9.4658963E-4,3.942925E-3,5.934364E-3,8.6817786E-4,-6.290733E-4,5.277029E-3,1.2434091E-3,-2.2828295E-3,-4.320734E-3,3.488325E-3,1.2418985E-2,-0E0],"categories":[],"categories_nodes":[],"categories_segments":[],"categories_sizes":[],"default_left":[0,0,0,0,0,0,0,0,0,0,0,0,0,0,0,0,0,0,0,0,0,0,0,0,0,0,0,0,0,0,0],"id":11,"left_children":[1,3,5,7,9,11,13,15,17,19,21,23,25,27,29,-1,-1,-1,-1,-1,-1,-1,-1,-1,-1,-1,-1,-1,-1,-1,-1],"loss_changes":[1.1432104E2,1.7269928E1,4.5515842E1,1.6023384E1,2.3657837E1,1.3738064E1,2.0432747E1,7.6061573E0,9.109898E0,7.611931E0,5.9221573E0,5.6768103E0,8.997686E0,8.608952E0,3.863205E0,0E0,0E0,0E0,0E0,0E0,0E0,0E0,0E0,0E0,0E0,0E0,0E0,0E0,0E0,0E0,0E0],"parents":[2147483647,0,0,1,1,2,2,3,3,4,4,5,5,6,6,7,7,8,8,9,9,10,10,11,11,12,12,13,13,14,14],"right_children":[2,4,6,8,10,12,14,16,18,20,22,24,26,28,30,-1,-1,-1,-1,-1,-1,-1,-1,-1,-1,-1,-1,-1,-1,-1,-1],"split_conditions":[4.9814737E-1,4.7796023E-1,5.4853636E-1,8.45005E-1,6.807171E1,2E-2,6.791716E-1,6.2217033E1,-2.2047535E-3,3.2616243E0,1.41E0,6.593966E1,3.8E0,6.7217296E-1,-7.113414E0,-1.7780487E-3,6.684561E-4,-3.5017417E-4,-4.9548484E-3,-9.4658963E-4,3.942925E-3,5.934364E-3,8.6817786E-4,-6.290733E-4,5.277029E-3,1.2434091E-3,-2.2828295E-3,-4.320734E-3,3.488325E-3,1.2418985E-2,-0E0],"split_indices":[0,0,0,4,1,14,0,1,7,9,14,1,15,11,2,0,0,0,0,0,0,0,0,0,0,0,0,0,0,0,0],"split_type":[0,0,0,0,0,0,0,0,0,0,0,0,0,0,0,0,0,0,0,0,0,0,0,0,0,0,0,0,0,0,0],"sum_hessian":[7.5843022E3,4.027341E3,3.5569612E3,1.5655519E3,2.461789E3,2.9541345E3,6.028267E2,1.264428E3,3.0112387E2,2.3553132E3,1.06475914E2,6.8881445E2,2.26532E3,5.728061E2,3.0020622E1,1.1286709E3,1.3575708E2,5.8286316E1,2.4283754E2,2.325722E3,2.9591333E1,6.030214E1,4.617377E1,6.744154E2,1.4399046E1,2.1942134E3,7.1106834E1,1.1718493E1,5.610876E2,2.897029E1,1.050333E0],"tree_param":{"num_deleted":"0","num_feature":"19","num_nodes":"31","size_leaf_vector":"1"}},{"base_weights":[7.960308E-3,-2.743454E-2,2.6265976E-1,3.1693257E-2,-1.4918984E-1,5.0836515E-1,1.5680738E-1,2.1839067E-1,-2.195648E-3,-2.8178725E-1,-9.2976704E-2,5.3650296E-1,-2.3582989E-1,-6.690967E-2,2.1493854E-1,2.7724016E-3,-1.6395047E-3,5.613583E-4,-7.0060417E-4,-3.3348459E-3,-1.1072053E-3,-1.0640166E-3,4.210295E-3,7.5715897E-3,3.8385652E-3,-6.1593046E-3,5.6806006E-3,2.3630639E-3,-3.5720917E-3,-1.2893969E-3,2.5664624E-3],"categories":[],"categories_nodes":[],"categories_segments":[],"categories_sizes":[],"default_left":[0,0,0,0,0,0,0,0,0,0,0,0,0,0,0,0,0,0,0,0,0,0,0,0,0,0,0,0,0,0,0],"id":12,"left_children":[1,3,5,7,9,11,13,15,17,19,21,23,25,27,29,-1,-1,-1,-1,-1,-1,-1,-1,-1,-1,-1,-1,-1,-1,-1,-1],"loss_changes":[6.974584E1,4.884125E1,2.3732948E1,2.901053E1,1.6103718E1,6.428688E0,8.833534E0,1.6038124E1,1.5259365E1,5.265812E0,1.0579761E1,7.4475555E0,3.8997903E0,1.219645E1,7.8295364E0,0E0,0E0,0E0,0E0,0E0,0E0,0E0,0E0,0E0,0E0,0E0,0E0,0E0,0E0,0E0,0E0],"parents":[2147483647,0,0,1,1,2,2,3,3,4,4,5,5,6,6,7,7,8,8,9,9,10,10,11,11,12,12,13,13,14,14],"right_children":[2,4,6,8,10,12,14,16,18,20,22,24,26,28,30,-1,-1,-1,-1,-1,-1,-1,-1,-1,-1,-1,-1,-1,-1,-1,-1],"split_conditions":[1.700069E0,5.7485376E-2,3.8366463E1,-2.9054148E0,5.630792E-1,3.5353873E0,-3.7390018E-1,2.24E0,2.6496496E0,7.8E-1,7.112778E1,1.57E0,1.1013368E1,1.54E0,4.2E-1,2.7724016E-3,-1.6395047E-3,5.613583E-4,-7.0060417E-4,-3.3348459E-3,-1.1072053E-3,-1.0640166E-3,4.210295E-3,7.5715897E-3,3.8385652E-3,-6.1593046E-3,5.6806006E-3,2.3630639E-3,-3.5720917E-3,-1.2893969E-3,2.5664624E-3],"split_indices":[11,5,1,7,11,2,3,15,10,14,1,15,2,13,13,0,0,0,0,0,0,0,0,0,0,0,0,0,0,0,0],"split_type":[0,0,0,0,0,0,0,0,0,0,0,0,0,0,0,0,0,0,0,0,0,0,0,0,0,0,0,0,0,0,0],"sum_hessian":[7.706911E3,6.764699E3,9.4221234E2,4.5488945E3,2.2158047E3,2.7856134E2,6.63651E2,7.017119E2,3.8471824E3,6.520092E2,1.5637955E3,2.7024533E2,8.316005E0,1.3326764E2,5.3038336E2,6.108551E2,9.085684E1,2.0611675E3,1.7860149E3,4.947487E2,1.572605E2,1.5274331E3,3.6362434E1,1.04588005E2,1.6565735E2,6.808392E0,1.507613E0,6.3680748E1,6.958689E1,5.432412E1,4.7605923E2],"tree_param":{"num_deleted":"0","num_feature":"19","num_nodes":"31","size_leaf_vector":"1"}},{"base_weights":[-2.5489558E-3,-4.795077E-2,1.880549E-1,2.2455469E-2,-1.1995306E-1,4.6251532E-1,1.00841984E-1,1.2005686E-1,-5.721449E-2,-1.5126827E-1,1.15835965E-2,8.409797E-1,3.372209E-1,2.4456097E-1,4.6978254E-2,5.2751335E-3,9.315546E-4,9.2541025E-4,-1.0619416E-3,-1.2679036E-3,-4.222341E-3,-1.3833381E-4,5.1438543E-3,8.989439E-3,-4.869016E-3,7.856906E-3,1.7111691E-3,1.7331202E-3,7.017292E-3,-3.1799653E-5,1.8836346E-3],"categories":[],"categories_nodes":[],"categories_segments":[],"categories_sizes":[],"default_left":[0,0,0,0,0,0,0,0,0,0,0,0,0,0,0,0,0,0,0,0,0,0,0,0,0,0,0,0,0,0,0],"id":13,"left_children":[1,3,5,7,9,11,13,15,17,19,21,23,25,27,29,-1,-1,-1,-1,-1,-1,-1,-1,-1,-1,-1,-1,-1,-1,-1,-1],"loss_changes":[6.54764E1,3.1167713E1,3.415766E1,2.4127052E1,1.2652672E1,1.472805E1,8.270878E0,1.4586458E1,1.2492632E1,1.5655296E1,7.9231734E0,7.6821175E0,1.8612999E1,8.549459E0,5.960685E0,0E0,0E0,0E0,0E0,0E0,0E0,0E0,0E0,0E0,0E0,0E0,0E0,0E0,0E0,0E0,0E0],"parents":[2147483647,0,0,1,1,2,2,3,3,4,4,5,5,6,6,7,7,8,8,9,9,10,10,11,11,12,12,13,13,14,14],"right_children":[2,4,6,8,10,12,14,16,18,20,22,24,26,28,30,-1,-1,-1,-1,-1,-1,-1,-1,-1,-1,-1,-1,-1,-1,-1,-1],"split_conditions":[1.3549237E0,-6.4724474E-4,-2.2918552E-1,2.7023232E0,8.274744E-1,2.8053513E0,1.9248444E0,-3.1892943E0,-2.2430108E0,8.1071687E-1,1.2829534E1,2.3851903E-1,-5.692462E-1,1.8163466E0,1.9857274E0,5.2751335E-3,9.315546E-4,9.2541025E-4,-1.0619416E-3,-1.2679036E-3,-4.222341E-3,-1.3833381E-4,5.1438543E-3,8.989439E-3,-4.869016E-3,7.856906E-3,1.7111691E-3,1.7331202E-3,7.017292E-3,-3.1799653E-5,1.8836346E-3],"split_indices":[11,5,12,10,3,10,10,7,6,4,7,4,5,10,3,0,0,0,0,0,0,0,0,0,0,0,0,0,0,0,0],"split_type":[0,0,0,0,0,0,0,0,0,0,0,0,0,0,0,0,0,0,0,0,0,0,0,0,0,0,0,0,0,0,0],"sum_hessian":[7.578342E3,6.1258975E3,1.4524446E3,3.0909507E3,3.0349468E3,3.4539822E2,1.1070464E3,1.3943322E3,1.6966185E3,2.457247E3,5.776997E2,8.108066E1,2.6431757E2,2.948044E2,8.12242E2,8.174886E1,1.3125833E3,4.1267322E2,1.2839453E3,2.259738E3,1.9750891E2,5.4986E2,2.783968E1,7.903E1,2.0506628E0,6.7795E1,1.9652255E2,2.593333E2,3.54711E1,5.957678E2,2.1647415E2],"tree_param":{"num_deleted":"0","num_feature":"19","num_nodes":"31","size_leaf_vector":"1"}},{"base_weights":[-4.2214226E-3,-5.2236803E-2,1.8119572E-1,-4.4611557E-3,-1.4833969E-1,3.9036328E-1,8.822287E-2,1.621078E-1,-4.5179304E-2,-2.061856E-1,3.7455752E-2,7.593719E-1,3.1781432E-1,-5.627882E-1,9.853007E-2,2.200714E-3,-1.3315002E-3,3.7496528E-3,-5.5960205E-4,-2.3312622E-4,-2.280595E-3,5.332061E-3,-3.846405E-4,1.1902873E-2,3.6794778E-3,2.136487E-3,6.9923047E-3,4.0452634E-3,-1.0107089E-2,-1.0803543E-3,1.3020113E-3],"categories":[],"categories_nodes":[],"categories_segments":[],"categories_sizes":[],"default_left":[0,0,0,0,0,0,0,0,0,0,0,0,0,0,0,0,0,0,0,0,0,0,0,0,0,0,0,0,0,0,0],"id":14,"left_children":[1,3,5,7,9,11,13,15,17,19,21,23,25,27,29,-1,-1,-1,-1,-1,-1,-1,-1,-1,-1,-1,-1,-1,-1,-1,-1],"loss_changes":[6.7813446E1,2.7696775E1,2.9896133E1,2.7438969E1,2.1756641E1,1.1232063E1,6.958297E0,1.3721725E1,1.4531992E1,5.878479E0,1.8381245E1,1.0182987E1,1.48800125E1,8.256268E0,7.088867E0,0E0,0E0,0E0,0E0,0E0,0E0,0E0,0E0,0E0,0E0,0E0,0E0,0E0,0E0,0E0,0E0],"parents":[2147483647,0,0,1,1,2,2,3,3,4,4,5,5,6,6,7,7,8,8,9,9,10,10,11,11,12,12,13,13,14,14],"right_children":[2,4,6,8,10,12,14,16,18,20,22,24,26,28,30,-1,-1,-1,-1,-1,-1,-1,-1,-1,-1,-1,-1,-1,-1,-1,-1],"split_conditions":[1.3154944E0,5.5805575E-2,-1.2413398E-1,4.310209E1,5.913195E0,2.1818128E0,-1.1965644E-1,4.6427145E0,-2.9054148E0,2.6E-1,-4.173178E-1,-2.733976E0,6.78E0,5.1E-1,3.6E-1,2.200714E-3,-1.3315002E-3,3.7496528E-3,-5.5960205E-4,-2.3312622E-4,-2.280595E-3,5.332061E-3,-3.846405E-4,1.1902873E-2,3.6794778E-3,2.136487E-3,6.9923047E-3,4.0452634E-3,-1.0107089E-2,-1.0803543E-3,1.3020113E-3],"split_indices":[11,5,5,1,8,10,5,10,7,13,7,6,13,15,13,0,0,0,0,0,0,0,0,0,0,0,0,0,0,0,0],"split_type":[0,0,0,0,0,0,0,0,0,0,0,0,0,0,0,0,0,0,0,0,0,0,0,0,0,0,0,0,0,0,0],"sum_hessian":[7.6273867E3,6.0639136E3,1.5634733E3,4.0587063E3,2.005207E3,4.7582446E2,1.0876488E3,7.9127075E2,3.2674355E3,1.5330631E3,4.7214398E2,7.280345E1,4.03021E2,1.376894E1,1.0738799E3,6.646801E2,1.26590675E2,7.773393E1,3.1897017E3,1.6910866E2,1.3639545E3,6.285181E1,4.0929214E2,3.149465E1,4.13088E1,3.210764E2,8.19446E1,3.7125857E0,1.00563545E1,1.3792253E2,9.359573E2],"tree_param":{"num_deleted":"0","num_feature":"19","num_nodes":"31","size_leaf_vector":"1"}},{"base_weights":[4.0354086E-3,-1.2370001E-1,1.4745328E-1,-2.0130794E-1,-7.5325295E-2,9.729213E-2,3.9604816E-1,-2.6047578E-1,-5.773541E-2,1.5924548E-1,-8.7274656E-2,3.0148122E-2,1.86857E-1,3.4909907E-1,7.6636297E-1,-2.208218E-3,-4.1618897E-3,5.1514525E-3,-8.7795896E-4,-0E0,4.6282387E-3,-1.8945677E-3,-5.563563E-4,2.6028682E-3,-1.16945346E-4,2.0474659E-3,-2.3805844E-3,4.2923773E-3,2.0041012E-3,8.081822E-3,-0E0],"categories":[],"categories_nodes":[],"categories_segments":[],"categories_sizes":[],"default_left":[0,0,0,0,0,0,0,0,0,0,0,0,0,0,0,0,0,0,0,0,0,0,0,0,0,0,0,0,0,0,0],"id":15,"left_children":[1,3,5,7,9,11,13,15,17,19,21,23,25,27,29,-1,-1,-1,-1,-1,-1,-1,-1,-1,-1,-1,-1,-1,-1,-1,-1],"loss_changes":[1.3988924E2,1.4839661E1,4.432419E1,1.2734135E1,6.9533825E0,1.7823658E1,8.789482E0,5.879219E0,7.5322204E0,5.4162836E0,7.430872E0,1.6859915E1,9.789513E0,5.620781E0,2.2196884E0,0E0,0E0,0E0,0E0,0E0,0E0,0E0,0E0,0E0,0E0,0E0,0E0,0E0,0E0,0E0,0E0],"parents":[2147483647,0,0,1,1,2,2,3,3,4,4,5,5,6,6,7,7,8,8,9,9,10,10,11,11,12,12,13,13,14,14],"right_children":[2,4,6,8,10,12,14,16,18,20,22,24,26,28,30,-1,-1,-1,-1,-1,-1,-1,-1,-1,-1,-1,-1,-1,-1,-1,-1],"split_conditions":[4.9814737E-1,4.77691E-1,5.4853636E-1,7.51105E0,3.7465008E1,5.4E-1,6.415911E-1,8.45005E-1,4.8445915E1,3.3761046E0,4.672313E1,4.0095295E1,4.05E0,1.47E0,-5.1342483E0,-2.208218E-3,-4.1618897E-3,5.1514525E-3,-8.7795896E-4,-0E0,4.6282387E-3,-1.8945677E-3,-5.563563E-4,2.6028682E-3,-1.16945346E-4,2.0474659E-3,-2.3805844E-3,4.2923773E-3,2.0041012E-3,8.081822E-3,-0E0],"split_indices":[0,0,0,8,1,14,0,4,1,2,1,1,15,15,2,0,0,0,0,0,0,0,0,0,0,0,0,0,0,0,0],"split_type":[0,0,0,0,0,0,0,0,0,0,0,0,0,0,0,0,0,0,0,0,0,0,0,0,0,0,0,0,0,0,0],"sum_hessian":[7.6307783E3,4.032514E3,3.5982646E3,1.538036E3,2.494478E3,2.9997786E3,5.9848596E2,1.0830892E3,4.5494675E2,1.1566127E2,2.3788167E3,1.7223926E3,1.2773861E3,5.369912E2,6.1494766E1,8.722262E2,2.1086311E2,1.9414421E1,4.3553232E2,7.844635E1,3.7214924E1,5.525869E2,1.8262297E3,2.670499E2,1.4553427E3,1.2290316E3,4.8354435E1,3.4210712E2,1.9488408E2,5.8492126E1,3.0026412E0],"tree_param":{"num_deleted":"0","num_feature":"19","num_nodes":"31","size_leaf_vector":"1"}},{"base_weights":[1.8057674E-3,2.2864461E-1,-3.312088E-2,5.8462065E-2,4.4555926E-1,-4.9426492E-2,2.2175074E-1,6.2723404E-1,1.5752807E-2,7.7560127E-1,3.6562276E-1,2.5541335E-2,-1.204622E-1,3.4846398E-1,1.6225513E-2,8.415754E-3,1.3502737E-3,-1.4609644E-4,4.4784136E-3,8.649823E-3,6.931959E-4,4.7310824E-3,2.9135166E-5,4.7670986E-4,-1.3222316E-3,-7.4800564E-4,-3.2015233E-3,-5.314008E-3,3.8083773E-3,-3.7167072E-3,2.2280866E-3],"categories":[],"categories_nodes":[],"categories_segments":[],"categories_sizes":[],"default_left":[0,0,0,0,0,0,0,0,0,0,0,0,0,0,0,0,0,0,0,0,0,0,0,0,0,0,0,0,0,0,0],"id":16,"left_children":[1,3,5,7,9,11,13,15,17,19,21,23,25,27,29,-1,-1,-1,-1,-1,-1,-1,-1,-1,-1,-1,-1,-1,-1,-1,-1],"loss_changes":[6.085802E1,3.7298115E1,2.740871E1,1.3414456E1,1.0109283E1,3.33209E1,9.921772E0,2.888359E0,7.5663385E0,4.1926613E0,1.382214E1,1.0505926E1,2.8828342E1,7.1332264E0,1.2510819E1,0E0,0E0,0E0,0E0,0E0,0E0,0E0,0E0,0E0,0E0,0E0,0E0,0E0,0E0,0E0,0E0],"parents":[2147483647,0,0,1,1,2,2,3,3,4,4,5,5,6,6,7,7,8,8,9,9,10,10,11,11,12,12,13,13,14,14],"right_children":[2,4,6,8,10,12,14,16,18,20,22,24,26,28,30,-1,-1,-1,-1,-1,-1,-1,-1,-1,-1,-1,-1,-1,-1,-1,-1],"split_conditions":[3.91776E1,-1.988094E0,6.807171E1,-5.692462E-1,-2.6482463E-1,1E0,2.06E0,1.18E0,3.11E0,1.74E0,1.26E0,5.4047678E-2,5.238021E-1,-5.5867517E-1,1.7231517E-2,8.415754E-3,1.3502737E-3,-1.4609644E-4,4.4784136E-3,8.649823E-3,6.931959E-4,4.7310824E-3,2.9135166E-5,4.7670986E-4,-1.3222316E-3,-7.4800564E-4,-3.2015233E-3,-5.314008E-3,3.8083773E-3,-3.7167072E-3,2.2280866E-3],"split_indices":[1,3,1,5,5,18,14,14,14,14,15,5,4,4,5,0,0,0,0,0,0,0,0,0,0,0,0,0,0,0,0],"split_type":[0,0,0,0,0,0,0,0,0,0,0,0,0,0,0,0,0,0,0,0,0,0,0,0,0,0,0,0,0,0,0],"sum_hessian":[7.652864E3,1.0234407E3,6.629423E3,5.7750366E2,4.4593704E2,6.2360054E3,3.934176E2,3.6788864E1,5.407148E2,8.1114784E1,3.6482227E2,3.0278037E3,3.2082017E3,2.3950076E2,1.5391685E2,2.3224165E1,1.35647E1,5.04857E2,3.5857784E1,7.0347E1,1.0767785E1,2.7882834E2,8.599391E1,2.6621216E3,3.65682E2,2.6174468E3,5.907549E2,6.30919E0,2.3319157E2,5.1248966E1,1.02667885E2],"tree_param":{"num_deleted":"0","num_feature":"19","num_nodes":"31","size_leaf_vector":"1"}},{"base_weights":[6.8776477E-3,-1.1833449E-1,1.469981E-1,-2.191112E-1,-7.871158E-2,8.810471E-2,4.325152E-1,-1.6591313E-1,-3.710997E-1,-1.04349285E-1,9.8303065E-2,3.9462537E-2,1.8553503E-1,3.6810085E-1,9.3165797E-1,5.5882176E-3,-1.8183384E-3,6.9973234E-4,-4.397023E-3,1.0926055E-3,-1.1735223E-3,1.8873898E-3,-7.274699E-4,2.461656E-3,4.2737312E-5,-3.2406615E-3,1.9944352E-3,4.8720674E-3,1.5300001E-3,-0E0,9.611672E-3],"categories":[],"categories_nodes":[],"categories_segments":[],"categories_sizes":[],"default_left":[0,0,0,0,0,0,0,0,0,0,0,0,0,0,0,0,0,0,0,0,0,0,0,0,0,0,0,0,0,0,0],"id":17,"left_children":[1,3,5,7,9,11,13,15,17,19,21,23,25,27,29,-1,-1,-1,-1,-1,-1,-1,-1,-1,-1,-1,-1,-1,-1,-1,-1],"loss_changes":[1.3367639E2,1.5716042E1,5.991189E1,8.444077E0,1.31650715E1,1.392383E1,1.768869E1,9.547865E0,9.068394E0,7.0740376E0,5.748697E0,1.4314786E1,7.0060043E0,1.3226143E1,2.7641106E0,0E0,0E0,0E0,0E0,0E0,0E0,0E0,0E0,0E0,0E0,0E0,0E0,0E0,0E0,0E0,0E0],"parents":[2147483647,0,0,1,1,2,2,3,3,4,4,5,5,6,6,7,7,8,8,9,9,10,10,11,11,12,12,13,13,14,14],"right_children":[2,4,6,8,10,12,14,16,18,20,22,24,26,28,30,-1,-1,-1,-1,-1,-1,-1,-1,-1,-1,-1,-1,-1,-1,-1,-1],"split_conditions":[4.9814737E-1,4.7369888E-1,5.4853636E-1,7.072144E-1,6.1985588E1,7.6E-1,6.415911E-1,-1.6394278E-1,4.4683674E1,-1.7580027E1,7.898879E0,-3.0441358E0,-7.64206E0,1.48E0,1.5027012E0,5.5882176E-3,-1.8183384E-3,6.9973234E-4,-4.397023E-3,1.0926055E-3,-1.1735223E-3,1.8873898E-3,-7.274699E-4,2.461656E-3,4.2737312E-5,-3.2406615E-3,1.9944352E-3,4.8720674E-3,1.5300001E-3,-0E0,9.611672E-3],"split_indices":[0,0,0,4,1,14,0,5,1,8,7,7,3,15,11,0,0,0,0,0,0,0,0,0,0,0,0,0,0,0,0],"split_type":[0,0,0,0,0,0,0,0,0,0,0,0,0,0,0,0,0,0,0,0,0,0,0,0,0,0,0,0,0,0,0],"sum_hessian":[7.613537E3,4.017056E3,3.596481E3,1.123995E3,2.8930608E3,2.9865642E3,6.099168E2,8.405527E2,2.8344235E2,2.5327092E3,3.6035175E2,2.0007578E3,9.858063E2,5.450558E2,6.486106E1,1.5251897E1,8.253008E2,3.6184074E1,2.4725827E2,1.4006352E2,2.3926455E3,2.3941173E2,1.2094002E2,2.8517834E2,1.7155795E3,2.3095621E1,9.6271063E2,3.4618616E2,1.9886963E2,1.050455E0,6.3810608E1],"tree_param":{"num_deleted":"0","num_feature":"19","num_nodes":"31","size_leaf_vector":"1"}},{"base_weights":[-4.917494E-3,-9.4005905E-2,1.9087295E-1,-2.2040616E-1,-4.140674E-2,1.23518325E-1,3.8378078E-1,-1.9522391E-1,-6.229899E-1,-5.8019824E-2,2.7469006E-1,2.6197007E-1,8.01881E-2,5.540686E-1,2.434339E-1,-2.177312E-3,8.4407587E-4,-4.687583E-3,-1.2341729E-2,1.4181928E-3,-7.316523E-4,4.1445866E-3,-7.439817E-4,3.4812968E-3,-1.424657E-3,2.8552633E-5,1.7695295E-3,7.1657044E-3,2.7126928E-3,1.562646E-3,7.3813987E-3],"categories":[],"categories_nodes":[],"categories_segments":[],"categories_sizes":[],"default_left":[0,0,0,0,0,0,0,0,0,0,0,0,0,0,0,0,0,0,0,0,0,0,0,0,0,0,0,0,0,0,0],"id":18,"left_children":[1,3,5,7,9,11,13,15,17,19,21,23,25,27,29,-1,-1,-1,-1,-1,-1,-1,-1,-1,-1,-1,-1,-1,-1,-1,-1],"loss_changes":[1.3277292E2,3.455019E1,3.0304718E1,1.4483795E1,1.928406E1,1.0233633E1,1.3530479E1,9.285645E0,5.3426323E0,1.0626892E1,9.304424E0,1.4783142E1,9.969204E0,1.1085457E1,1.3606783E1,0E0,0E0,0E0,0E0,0E0,0E0,0E0,0E0,0E0,0E0,0E0,0E0,0E0,0E0,0E0,0E0],"parents":[2147483647,0,0,1,1,2,2,3,3,4,4,5,5,6,6,7,7,8,8,9,9,10,10,11,11,12,12,13,13,14,14],"right_children":[2,4,6,8,10,12,14,16,18,20,22,24,26,28,30,-1,-1,-1,-1,-1,-1,-1,-1,-1,-1,-1,-1,-1,-1,-1,-1],"split_conditions":[5.103686E-1,4.77691E-1,5.4853636E-1,4.3429023E-1,6.7200516E1,4.0579357E1,7.4E-1,2.6287794E1,2.28E0,3.8146492E1,2.15E0,2.72E0,8.759491E-2,4.5239466E-1,6.415911E-1,-2.177312E-3,8.4407587E-4,-4.687583E-3,-1.2341729E-2,1.4181928E-3,-7.316523E-4,4.1445866E-3,-7.439817E-4,3.4812968E-3,-1.424657E-3,2.8552633E-5,1.7695295E-3,7.1657044E-3,2.7126928E-3,1.562646E-3,7.3813987E-3],"split_indices":[0,0,0,12,1,1,15,8,15,1,14,13,4,8,0,0,0,0,0,0,0,0,0,0,0,0,0,0,0,0,0],"split_type":[0,0,0,0,0,0,0,0,0,0,0,0,0,0,0,0,0,0,0,0,0,0,0,0,0,0,0,0,0,0,0],"sum_hessian":[7.613461E3,5.236775E3,2.376686E3,1.5313704E3,3.7054048E3,1.7678855E3,6.088006E2,1.4463525E3,8.501782E1,3.524941E3,1.8046368E2,4.1349313E2,1.3543923E3,2.6917734E2,3.3962326E2,1.3423286E3,1.04023994E2,7.201501E1,1.300282E1,2.4249799E2,3.282443E3,1.3064561E2,4.9818066E1,3.431423E2,7.035084E1,7.5967017E2,5.9472217E2,1.6675372E2,1.02423615E2,2.927012E2,4.6922047E1],"tree_param":{"num_deleted":"0","num_feature":"19","num_nodes":"31","size_leaf_vector":"1"}},{"base_weights":[2.8021642E-4,2.2309867E-1,-3.7595786E-2,2.9998374E-1,-1.6269536E-1,-6.137295E-2,2.895065E-1,5.442523E-1,2.1050867E-1,9.353016E-2,-4.738275E-1,5.098871E-3,-1.1984533E-1,3.9220467E-1,1.0063486E-1,7.96956E-3,2.2902833E-3,4.3998295E-3,1.1822225E-3,1.41443E-3,-7.197119E-3,-5.624518E-3,4.300244E-4,4.5059514E-4,-1.3378863E-3,-9.065556E-4,-3.4174144E-3,4.293661E-3,-2.508832E-3,-3.9049934E-3,3.2054158E-3],"categories":[],"categories_nodes":[],"categories_segments":[],"categories_sizes":[],"default_left":[0,0,0,0,0,0,0,0,0,0,0,0,0,0,0,0,0,0,0,0,0,0,0,0,0,0,0,0,0,0,0],"id":19,"left_children":[1,3,5,7,9,11,13,15,17,19,21,23,25,27,29,-1,-1,-1,-1,-1,-1,-1,-1,-1,-1,-1,-1,-1,-1,-1,-1],"loss_changes":[6.486104E1,3.3374573E1,5.0721046E1,1.9439545E1,1.5200629E1,2.3852905E1,7.9841576E0,1.8226074E1,1.3954201E1,3.5703514E0,4.486191E0,1.5751872E1,2.0602482E1,7.12397E0,1.7621565E1,0E0,0E0,0E0,0E0,0E0,0E0,0E0,0E0,0E0,0E0,0E0,0E0,0E0,0E0,0E0,0E0],"parents":[2147483647,0,0,1,1,2,2,3,3,4,4,5,5,6,6,7,7,8,8,9,9,10,10,11,11,12,12,13,13,14,14],"right_children":[2,4,6,8,10,12,14,16,18,20,22,24,26,28,30,-1,-1,-1,-1,-1,-1,-1,-1,-1,-1,-1,-1,-1,-1,-1,-1],"split_conditions":[-2.2430108E0,-1.0805649E-1,6.763765E1,2.9161956E0,6.2069774E-2,1E0,2.07E0,3.67433E1,-6.638827E0,2.2476855E-1,-2.220993E0,1.7616109E0,7.2186595E-1,4E0,4.8787525E-4,7.96956E-3,2.2902833E-3,4.3998295E-3,1.1822225E-3,1.41443E-3,-7.197119E-3,-5.624518E-3,4.300244E-4,4.5059514E-4,-1.3378863E-3,-9.065556E-4,-3.4174144E-3,4.293661E-3,-2.508832E-3,-3.9049934E-3,3.2054158E-3],"split_indices":[6,12,1,10,5,18,14,1,6,4,3,7,4,17,5,0,0,0,0,0,0,0,0,0,0,0,0,0,0,0,0],"split_type":[0,0,0,0,0,0,0,0,0,0,0,0,0,0,0,0,0,0,0,0,0,0,0,0,0,0,0,0,0,0,0],"sum_hessian":[7.65947E3,1.1152507E3,6.5442197E3,9.324577E2,1.82793E2,6.1051187E3,4.3910104E2,2.4426582E2,6.8819183E2,9.9246E1,8.3547E1,2.8499727E3,3.255146E3,2.7961423E2,1.5948683E2,1.3212064E2,1.1214519E2,1.9211597E2,4.960759E2,9.6445625E1,2.8003783E0,7.281863E1,1.0728369E1,2.2198342E3,6.301384E2,2.883194E3,3.7195178E2,2.6643753E2,1.317669E1,4.743896E1,1.12047874E2],"tree_param":{"num_deleted":"0","num_feature":"19","num_nodes":"31","size_leaf_vector":"1"}},{"base_weights":[-3.143528E-3,-1.13526486E-1,1.189667E-1,-2.457422E-1,-8.007675E-2,6.848601E-2,3.6594382E-1,-3.5423642E-1,-1.23086974E-1,-1.0128804E-1,1.2574366E-1,1.6191399E-2,1.6645412E-1,3.2518473E-1,1.0393731E-2,-2.2589962E-3,-6.8663377E-3,5.99331E-4,-3.0601744E-3,-9.2556357E-4,-6.55979E-3,4.5413375E-3,-0E0,7.128578E-4,-8.603188E-4,-6.4331616E-5,2.0691112E-3,4.17269E-3,1.7045066E-3],"categories":[],"categories_nodes":[],"categories_segments":[],"categories_sizes":[],"default_left":[0,0,0,0,0,0,0,0,0,0,0,0,0,0,0,0,0,0,0,0,0,0,0,0,0,0,0,0,0],"id":20,"left_children":[1,3,5,7,9,11,13,15,17,19,21,23,25,27,-1,-1,-1,-1,-1,-1,-1,-1,-1,-1,-1,-1,-1,-1,-1],"loss_changes":[1.03225716E2,1.744366E1,4.47968E1,1.0161922E1,1.40706005E1,1.5291154E1,1.4772728E1,1.6793167E1,1.319688E1,1.3307388E1,1.213365E1,1.1141707E1,7.509857E0,7.561199E0,0E0,0E0,0E0,0E0,0E0,0E0,0E0,0E0,0E0,0E0,0E0,0E0,0E0,0E0,0E0],"parents":[2147483647,0,0,1,1,2,2,3,3,4,4,5,5,6,6,7,7,8,8,9,9,10,10,11,11,12,12,13,13],"right_children":[2,4,6,8,10,12,14,16,18,20,22,24,26,28,-1,-1,-1,-1,-1,-1,-1,-1,-1,-1,-1,-1,-1,-1,-1],"split_conditions":[4.9814737E-1,4.7016472E-1,5.4853636E-1,4.5239466E-1,1.7185728E1,7.1E-1,6.791716E-1,-4.793583E0,1.94E0,7.898879E0,8.272218E-1,5.9E-1,-8.058351E0,1.47E0,1.0393731E-2,-2.2589962E-3,-6.8663377E-3,5.99331E-4,-3.0601744E-3,-9.2556357E-4,-6.55979E-3,4.5413375E-3,-0E0,7.128578E-4,-8.603188E-4,-6.4331616E-5,2.0691112E-3,4.17269E-3,1.7045066E-3],"split_indices":[0,0,0,8,8,14,0,8,13,7,9,15,8,15,0,0,0,0,0,0,0,0,0,0,0,0,0,0,0],"split_type":[0,0,0,0,0,0,0,0,0,0,0,0,0,0,0,0,0,0,0,0,0,0,0,0,0,0,0,0,0],"sum_hessian":[7.654725E3,4.024795E3,3.6299302E3,8.0405273E2,3.2207422E3,3.0193884E3,6.105418E2,4.2032593E2,3.837268E2,2.9251575E3,2.955845E2,1.9767517E3,1.0426368E3,5.798946E2,3.0647213E1,3.0783878E2,1.12487175E2,1.8975604E2,1.9397078E2,2.8838972E3,4.1260426E1,7.9648094E1,2.1593642E2,1.2912212E3,6.8553046E2,1.9334956E2,8.4928723E2,3.573656E2,2.2252902E2],"tree_param":{"num_deleted":"0","num_feature":"19","num_nodes":"29","size_leaf_vector":"1"}},{"base_weights":[-2.5869396E-3,-4.2635143E-2,1.890392E-1,3.6340266E-2,-1.2174053E-1,4.0993443E-1,1.1313507E-1,5.1147062E-2,-3.5394192E-1,-2.4835381E-1,-7.158799E-2,5.059178E-1,9.830726E-2,5.1090963E-2,3.074142E-1,1.7074038E-3,2.1433804E-4,-4.3357476E-3,7.093435E-3,-1.9323967E-3,-6.4162887E-3,1.0991262E-3,-9.3741727E-4,5.6942557E-3,-0E0,2.0362737E-3,-4.880721E-3,9.981385E-4,-2.5329064E-3,-3.457597E-4,3.4853783E-3],"categories":[],"categories_nodes":[],"categories_segments":[],"categories_sizes":[],"default_left":[0,0,0,0,0,0,0,0,0,0,0,0,0,0,0,0,0,0,0,0,0,0,0,0,0,0,0,0,0,0,0],"id":21,"left_children":[1,3,5,7,9,11,13,15,17,19,21,23,25,27,29,-1,-1,-1,-1,-1,-1,-1,-1,-1,-1,-1,-1,-1,-1,-1,-1],"loss_changes":[5.8453472E1,3.957843E1,2.1443642E1,1.7982212E1,1.97374E1,9.23687E0,1.1487016E1,1.0626841E1,9.92513E0,1.8236149E1,9.151795E0,8.281273E0,5.05218E0,1.1066116E1,3.6318378E0,0E0,0E0,0E0,0E0,0E0,0E0,0E0,0E0,0E0,0E0,0E0,0E0,0E0,0E0,0E0,0E0],"parents":[2147483647,0,0,1,1,2,2,3,3,4,4,5,5,6,6,7,7,8,8,9,9,10,10,11,11,12,12,13,13,14,14],"right_children":[2,4,6,8,10,12,14,16,18,20,22,24,26,28,30,-1,-1,-1,-1,-1,-1,-1,-1,-1,-1,-1,-1,-1,-1,-1,-1],"split_conditions":[1.4298633E0,1E0,-2.2405279E-1,2.4536665E-1,5.2883434E-1,-8.478743E0,1.0157337E1,-2.9054148E0,1.6799332E1,8.663477E-1,2.1E-1,-2.2888532E0,-5.1254115E0,6.9281983E-1,1.42453145E-2,1.7074038E-3,2.1433804E-4,-4.3357476E-3,7.093435E-3,-1.9323967E-3,-6.4162887E-3,1.0991262E-3,-9.3741727E-4,5.6942557E-3,-0E0,2.0362737E-3,-4.880721E-3,9.981385E-4,-2.5329064E-3,-3.457597E-4,3.4853783E-3],"split_indices":[11,18,12,12,11,2,8,7,2,4,13,7,7,4,12,0,0,0,0,0,0,0,0,0,0,0,0,0,0,0,0],"split_type":[0,0,0,0,0,0,0,0,0,0,0,0,0,0,0,0,0,0,0,0,0,0,0,0,0,0,0,0,0,0,0],"sum_hessian":[7.6317764E3,6.318118E3,1.3136584E3,3.1558716E3,3.1622463E3,3.3033777E2,9.833207E2,3.0446614E3,1.1121032E2,8.8930255E2,2.2729438E3,2.4914381E2,8.119396E1,7.511197E2,2.3220097E2,5.9732635E2,2.447335E3,1.0543863E2,5.7716913E0,7.848395E2,1.0446308E2,2.4148117E2,2.0314626E3,2.2178795E2,2.735587E1,7.138356E1,9.810407E0,6.5146765E2,9.965203E1,2.234856E1,2.0985242E2],"tree_param":{"num_deleted":"0","num_feature":"19","num_nodes":"31","size_leaf_vector":"1"}},{"base_weights":[-1.0552427E-3,-9.444899E-2,1.9021742E-1,-1.394369E-1,-1.6009023E-2,1.5389602E-1,5.6752783E-1,-1.5372927E-1,1.3383251E-1,-4.0751237E-2,2.2225861E-1,2.7732426E-1,1.06812306E-1,4.464664E-1,8.197838E-3,-1.2830503E-3,-3.181016E-3,6.2724785E-3,3.703297E-4,4.524024E-3,-5.268013E-4,4.7358996E-3,5.224719E-5,3.3045786E-3,-2.2408252E-3,6.9665577E-4,3.4257371E-3,5.6512794E-3,1.6724704E-3],"categories":[],"categories_nodes":[],"categories_segments":[],"categories_sizes":[],"default_left":[0,0,0,0,0,0,0,0,0,0,0,0,0,0,0,0,0,0,0,0,0,0,0,0,0,0,0,0,0],"id":22,"left_children":[1,3,5,7,9,11,13,15,17,19,21,23,25,27,-1,-1,-1,-1,-1,-1,-1,-1,-1,-1,-1,-1,-1,-1,-1],"loss_changes":[1.3662238E2,1.7999443E1,3.3466896E1,1.2801231E1,1.0955106E1,1.2878895E1,4.629158E0,1.2444748E1,6.9177675E0,9.731449E0,9.003689E0,1.6929173E1,1.4152584E1,4.1715126E0,0E0,0E0,0E0,0E0,0E0,0E0,0E0,0E0,0E0,0E0,0E0,0E0,0E0,0E0,0E0],"parents":[2147483647,0,0,1,1,2,2,3,3,4,4,5,5,6,6,7,7,8,8,9,9,10,10,11,11,12,12,13,13],"right_children":[2,4,6,8,10,12,14,16,18,20,22,24,26,28,-1,-1,-1,-1,-1,-1,-1,-1,-1,-1,-1,-1,-1,-1,-1],"split_conditions":[5.090071E-1,4.9174526E-1,5.859181E-1,6.807171E1,1.4811953E0,4.071502E1,6.415911E-1,2.4536665E-1,2.5260775E0,3.52207E1,8.6E-1,4.05E0,2.0340358E-1,2.68E0,8.197838E-3,-1.2830503E-3,-3.181016E-3,6.2724785E-3,3.703297E-4,4.524024E-3,-5.268013E-4,4.7358996E-3,5.224719E-5,3.3045786E-3,-2.2408252E-3,6.9665577E-4,3.4257371E-3,5.6512794E-3,1.6724704E-3],"split_indices":[0,0,0,1,9,1,0,12,3,1,15,15,12,15,0,0,0,0,0,0,0,0,0,0,0,0,0,0,0],"split_type":[0,0,0,0,0,0,0,0,0,0,0,0,0,0,0,0,0,0,0,0,0,0,0,0,0,0,0,0,0],"sum_hessian":[7.6494062E3,5.1439717E3,2.5054346E3,3.2599685E3,1.8840034E3,2.290416E3,2.1501854E2,3.1022505E3,1.5771788E2,1.7120731E3,1.7193037E2,6.238906E2,1.6665254E3,1.5171315E2,6.330538E1,2.6950408E3,4.0720972E2,2.2375105E1,1.3534277E2,3.6711193E1,1.6753619E3,7.643951E1,9.5490875E1,5.66532E2,5.73586E1,1.4455898E3,2.2093555E2,1.0251667E2,4.919648E1],"tree_param":{"num_deleted":"0","num_feature":"19","num_nodes":"29","size_leaf_vector":"1"}},{"base_weights":[-2.7901444E-3,-8.865157E-2,1.6757213E-1,-1.8960221E-1,-4.3866318E-2,1.3206254E-1,5.2663755E-1,-1.6263354E-1,-4.3234587E-1,7.918778E-2,-6.389161E-2,2.9827517E-1,1.019637E-1,6.368696E-1,3.0160308E-1,-1.4301032E-3,-4.1799643E-3,-5.0752573E-3,2.208409E-3,6.601731E-5,3.860395E-3,-9.0417627E-4,6.9015723E-4,4.390843E-3,-0E0,7.652819E-4,3.9279023E-3,-2.4757155E-3,6.683836E-3,7.6064235E-3,-0E0],"categories":[],"categories_nodes":[],"categories_segments":[],"categories_sizes":[],"default_left":[0,0,0,0,0,0,0,0,0,0,0,0,0,0,0,0,0,0,0,0,0,0,0,0,0,0,0,0,0,0,0],"id":23,"left_children":[1,3,5,7,9,11,13,15,17,19,21,23,25,27,29,-1,-1,-1,-1,-1,-1,-1,-1,-1,-1,-1,-1,-1,-1,-1,-1],"loss_changes":[1.1187072E2,2.2773792E1,3.1852692E1,9.460495E0,8.7107935E0,1.122308E1,4.31456E0,6.3783646E0,7.917158E0,1.0492645E1,1.0787018E1,1.4584002E1,1.4158422E1,4.8699417E0,1.1056627E1,0E0,0E0,0E0,0E0,0E0,0E0,0E0,0E0,0E0,0E0,0E0,0E0,0E0,0E0,0E0,0E0],"parents":[2147483647,0,0,1,1,2,2,3,3,4,4,5,5,6,6,7,7,8,8,9,9,10,10,11,11,12,12,13,13,14,14],"right_children":[2,4,6,8,10,12,14,16,18,20,22,24,26,28,30,-1,-1,-1,-1,-1,-1,-1,-1,-1,-1,-1,-1,-1,-1,-1,-1],"split_conditions":[5.0837004E-1,4.77691E-1,5.859181E-1,1.1013368E1,-2.6808996E0,3.67433E1,2.68E0,6.8799562E0,6.2687702E1,1E0,6.0906174E1,1.95E0,6.763765E1,8.8830894E-1,-6.566209E-1,-1.4301032E-3,-4.1799643E-3,-5.0752573E-3,2.208409E-3,6.601731E-5,3.860395E-3,-9.0417627E-4,6.9015723E-4,4.390843E-3,-0E0,7.652819E-4,3.9279023E-3,-2.4757155E-3,6.683836E-3,7.6064235E-3,-0E0],"split_indices":[0,0,0,2,7,1,15,10,1,16,1,15,1,10,12,0,0,0,0,0,0,0,0,0,0,0,0,0,0,0,0],"split_type":[0,0,0,0,0,0,0,0,0,0,0,0,0,0,0,0,0,0,0,0,0,0,0,0,0,0,0,0,0,0,0],"sum_hessian":[7.649312E3,5.0905425E3,2.5587695E3,1.5554957E3,3.5350466E3,2.333518E3,2.2525143E2,1.4066746E3,1.4882118E2,4.8694662E2,3.0481E3,3.4995334E2,1.9835647E3,1.457517E2,7.949975E1,1.3128271E3,9.384745E1,1.3523318E2,1.3587987E1,3.980819E2,8.88647E1,2.547772E3,5.0032797E2,2.3605907E2,1.1389428E2,1.8295208E3,1.5404399E2,3.4511633E0,1.4230052E2,2.9923513E1,4.9576233E1],"tree_param":{"num_deleted":"0","num_feature":"19","num_nodes":"31","size_leaf_vector":"1"}},{"base_weights":[3.643937E-3,-9.2963815E-2,2.0182368E-1,-1.366408E-1,-1.742092E-2,1.6309704E-1,6.021549E-1,-1.516088E-1,1.6369002E-1,1.3085948E-1,-5.3961102E-2,3.093785E-1,1.307331E-1,4.4910166E-1,9.2385525E-1,-1.2130116E-3,-3.5545584E-3,2.6854672E-3,-2.6732013E-3,-9.750946E-6,2.8738112E-3,-8.998332E-4,1.2092572E-3,4.4898978E-3,9.8279175E-5,-1.8870949E-3,1.5046452E-3,5.5011553E-3,4.968332E-5,-0E0,9.578204E-3],"categories":[],"categories_nodes":[],"categories_segments":[],"categories_sizes":[],"default_left":[0,0,0,0,0,0,0,0,0,0,0,0,0,0,0,0,0,0,0,0,0,0,0,0,0,0,0,0,0,0,0],"id":24,"left_children":[1,3,5,7,9,11,13,15,17,19,21,23,25,27,29,-1,-1,-1,-1,-1,-1,-1,-1,-1,-1,-1,-1,-1,-1,-1,-1],"loss_changes":[1.4550179E2,1.6675068E1,3.7674484E1,1.4531231E1,1.0122456E1,1.0260307E1,8.471481E0,1.84366E1,6.962281E0,7.8564E0,9.535004E0,1.64907E1,1.1829216E1,6.2990932E0,2.4706383E0,0E0,0E0,0E0,0E0,0E0,0E0,0E0,0E0,0E0,0E0,0E0,0E0,0E0,0E0,0E0,0E0],"parents":[2147483647,0,0,1,1,2,2,3,3,4,4,5,5,6,6,7,7,8,8,9,9,10,10,11,11,12,12,13,13,14,14],"right_children":[2,4,6,8,10,12,14,16,18,20,22,24,26,28,30,-1,-1,-1,-1,-1,-1,-1,-1,-1,-1,-1,-1,-1,-1,-1,-1],"split_conditions":[5.090071E-1,4.9174526E-1,5.859181E-1,6.807171E1,-1.0470984E0,3.7710835E1,6.415911E-1,8.45005E-1,9.235285E0,5.0036204E-1,6.0906174E1,1.86E0,-4.163875E0,3.7445583E0,1.6498065E0,-1.2130116E-3,-3.5545584E-3,2.6854672E-3,-2.6732013E-3,-9.750946E-6,2.8738112E-3,-8.998332E-4,1.2092572E-3,4.4898978E-3,9.8279175E-5,-1.8870949E-3,1.5046452E-3,5.5011553E-3,4.968332E-5,-0E0,9.578204E-3],"split_indices":[0,0,0,1,3,1,0,4,6,0,1,15,7,11,11,0,0,0,0,0,0,0,0,0,0,0,0,0,0,0,0],"split_type":[0,0,0,0,0,0,0,0,0,0,0,0,0,0,0,0,0,0,0,0,0,0,0,0,0,0,0,0,0,0,0],"sum_hessian":[7.590066E3,5.099971E3,2.4900945E3,3.2221501E3,1.8778209E3,2.2753025E3,2.1479205E2,3.073302E3,1.4884818E2,3.648256E2,1.5129952E3,4.0350177E2,1.8718008E3,1.5089992E2,6.3892128E1,2.6825593E3,3.907426E2,1.2219453E2,2.665364E1,1.9564062E2,1.6918495E2,1.2601296E3,2.528656E2,2.7226935E2,1.3123242E2,1.0494713E2,1.7668536E3,1.2071551E2,3.0184416E1,1.8973002E0,6.1994827E1],"tree_param":{"num_deleted":"0","num_feature":"19","num_nodes":"31","size_leaf_vector":"1"}},{"base_weights":[1.6525816E-3,-7.784668E-2,1.9057573E-1,-1.3521606E-1,4.2275153E-3,1.2233016E-1,3.6952925E-1,-1.8335077E-1,-9.4221835E-4,1.1523037E-2,-5.065294E-1,6.27116E-2,2.332833E-1,3.1895906E-1,7.6408845E-1,-3.1664756E-3,-1.4330395E-3,-3.599096E-3,3.724798E-4,3.3862032E-3,1.5809806E-5,1.5282641E-3,-7.383932E-3,2.5125945E-4,3.709835E-3,3.3465954E-3,2.377288E-4,4.2552054E-3,1.5147511E-3,-0E0,7.914277E-3],"categories":[],"categories_nodes":[],"categories_segments":[],"categories_sizes":[],"default_left":[0,0,0,0,0,0,0,0,0,0,0,0,0,0,0,0,0,0,0,0,0,0,0,0,0,0,0,0,0,0,0],"id":25,"left_children":[1,3,5,7,9,11,13,15,17,19,21,23,25,27,29,-1,-1,-1,-1,-1,-1,-1,-1,-1,-1,-1,-1,-1,-1,-1,-1],"loss_changes":[1.1476298E2,2.5412365E1,2.707441E1,2.0286633E1,7.7280555E0,1.0565531E1,1.0803452E1,1.1865959E1,1.1910357E1,6.7368126E0,5.267353E0,1.2093587E1,1.1707863E1,9.206169E0,2.18256E0,0E0,0E0,0E0,0E0,0E0,0E0,0E0,0E0,0E0,0E0,0E0,0E0,0E0,0E0,0E0,0E0],"parents":[2147483647,0,0,1,1,2,2,3,3,4,4,5,5,6,6,7,7,8,8,9,9,10,10,11,11,12,12,13,13,14,14],"right_children":[2,4,6,8,10,12,14,16,18,20,22,24,26,28,30,-1,-1,-1,-1,-1,-1,-1,-1,-1,-1,-1,-1,-1,-1,-1,-1],"split_conditions":[5.1181793E-1,4.9103585E-1,5.4853636E-1,7.346651E0,4.05E0,7.4E-1,6.415911E-1,4.6985292E-1,4.620968E-1,3.1007984E-1,7.6E-1,6.4985495E0,2.05E0,1.27E0,1.5027012E0,-3.1664756E-3,-1.4330395E-3,-3.599096E-3,3.724798E-4,3.3862032E-3,1.5809806E-5,1.5282641E-3,-7.383932E-3,2.5125945E-4,3.709835E-3,3.3465954E-3,2.377288E-4,4.2552054E-3,1.5147511E-3,-0E0,7.914277E-3],"split_indices":[0,0,0,8,15,14,0,0,0,11,13,8,14,15,11,0,0,0,0,0,0,0,0,0,0,0,0,0,0,0,0],"split_type":[0,0,0,0,0,0,0,0,0,0,0,0,0,0,0,0,0,0,0,0,0,0,0,0,0,0,0,0,0,0,0],"sum_hessian":[7.629577E3,5.3670107E3,2.262567E3,3.1653433E3,2.2016672E3,1.6444108E3,6.1815594E2,2.3240393E3,8.4130396E2,2.1745198E3,2.7147528E1,1.077552E3,5.668588E2,5.5338104E2,6.477494E1,5.279524E2,1.7960869E3,8.1796555E1,7.595074E2,5.922703E1,2.1152927E3,6.118137E0,2.1029392E1,9.6526965E2,1.1228235E2,3.7799155E2,1.8886728E2,3.3266882E2,2.2071219E2,1.0491748E0,6.3725765E1],"tree_param":{"num_deleted":"0","num_feature":"19","num_nodes":"31","size_leaf_vector":"1"}},{"base_weights":[1.158478E-2,-7.832151E-2,1.8337661E-1,-1.749114E-1,-3.637915E-2,1.2674215E-1,3.683629E-1,-2.3723933E-1,-2.346351E-2,-5.326108E-2,1.0068967E-1,2.4870741E-1,9.2243195E-2,3.2454753E-1,9.977177E-3,-6.7156455E-3,-2.1706072E-3,3.0733189E-3,-8.687496E-4,-4.6520634E-4,-7.410472E-3,1.02087E-4,2.6901742E-3,3.0616468E-3,-1.0958638E-3,5.989126E-3,8.2580704E-4,4.2145816E-3,2.2017956E-3],"categories":[],"categories_nodes":[],"categories_segments":[],"categories_sizes":[],"default_left":[0,0,0,0,0,0,0,0,0,0,0,0,0,0,0,0,0,0,0,0,0,0,0,0,0,0,0,0,0],"id":26,"left_children":[1,3,5,7,9,11,13,15,17,19,21,23,25,27,-1,-1,-1,-1,-1,-1,-1,-1,-1,-1,-1,-1,-1,-1,-1],"loss_changes":[1.1831781E2,2.0115627E1,2.699858E1,1.4003578E1,8.086128E0,8.126083E0,1.4906845E1,8.166641E0,9.226605E0,1.3668897E1,5.48962E0,9.291403E0,6.9873943E0,5.005062E0,0E0,0E0,0E0,0E0,0E0,0E0,0E0,0E0,0E0,0E0,0E0,0E0,0E0,0E0,0E0],"parents":[2147483647,0,0,1,1,2,2,3,3,4,4,5,5,6,6,7,7,8,8,9,9,10,10,11,11,12,12,13,13],"right_children":[2,4,6,8,10,12,14,16,18,20,22,24,26,28,-1,-1,-1,-1,-1,-1,-1,-1,-1,-1,-1,-1,-1,-1,-1],"split_conditions":[5.077357E-1,4.773881E-1,5.4853636E-1,7.346651E0,1.3956971E1,-1.9237816E-1,6.791716E-1,-2.1097946E0,8.1773406E-1,7.898879E0,3.472354E-2,4.08E0,4.1112074E-1,9.9E-1,9.977177E-3,-6.7156455E-3,-2.1706072E-3,3.0733189E-3,-8.687496E-4,-4.6520634E-4,-7.410472E-3,1.02087E-4,2.6901742E-3,3.0616468E-3,-1.0958638E-3,5.989126E-3,8.2580704E-4,4.2145816E-3,2.2017956E-3],"split_indices":[0,0,0,8,8,12,0,6,7,7,5,13,10,15,0,0,0,0,0,0,0,0,0,0,0,0,0,0,0],"split_type":[0,0,0,0,0,0,0,0,0,0,0,0,0,0,0,0,0,0,0,0,0,0,0,0,0,0,0,0,0],"sum_hessian":[7.6498457E3,5.018637E3,2.6312083E3,1.5103165E3,3.5083206E3,2.0211879E3,6.1002045E2,1.0644921E3,4.458245E2,3.1311897E3,3.7713098E2,4.3652454E2,1.5846633E3,5.746349E2,3.5385525E1,4.219365E1,1.02229846E3,6.7940315E1,3.7788416E2,3.1043555E3,2.6834091E1,2.5052742E2,1.2660355E2,3.7885242E2,5.7672127E1,2.5435753E1,1.5592277E3,2.8984344E2,2.8479147E2],"tree_param":{"num_deleted":"0","num_feature":"19","num_nodes":"29","size_leaf_vector":"1"}},{"base_weights":[2.679583E-4,-7.456539E-2,1.7818968E-1,-2.011025E-1,-2.41902E-2,1.5880682E-1,8.039683E-1,-1.569792E-1,-3.889786E-1,-3.9944064E-2,3.1848457E-1,1.12396725E-1,2.954391E-1,5.0426E-1,1.0868264E0,-1.9264565E-3,2.3359302E-3,-1.6855778E-3,-5.584611E-3,1.4260531E-3,-5.3601764E-4,-0E0,4.082009E-3,1.2644553E-3,-2.387043E-3,3.120212E-3,-3.674159E-3,7.0686257E-3,-6.6673843E-4,-0E0,1.1533351E-2],"categories":[],"categories_nodes":[],"categories_segments":[],"categories_sizes":[],"default_left":[0,0,0,0,0,0,0,0,0,0,0,0,0,0,0,0,0,0,0,0,0,0,0,0,0,0,0,0,0,0,0],"id":27,"left_children":[1,3,5,7,9,11,13,15,17,19,21,23,25,27,29,-1,-1,-1,-1,-1,-1,-1,-1,-1,-1,-1,-1,-1,-1,-1,-1],"loss_changes":[1.0220568E2,3.414895E1,2.6368607E1,1.2015465E1,2.0617836E1,1.3540157E1,2.9323616E0,1.7416067E1,9.7438965E0,9.152987E0,5.0818043E0,8.128319E0,6.259598E0,5.0875416E0,2.7767944E0,0E0,0E0,0E0,0E0,0E0,0E0,0E0,0E0,0E0,0E0,0E0,0E0,0E0,0E0,0E0,0E0],"parents":[2147483647,0,0,1,1,2,2,3,3,4,4,5,5,6,6,7,7,8,8,9,9,10,10,11,11,12,12,13,13,14,14],"right_children":[2,4,6,8,10,12,14,16,18,20,22,24,26,28,30,-1,-1,-1,-1,-1,-1,-1,-1,-1,-1,-1,-1,-1,-1,-1,-1],"split_conditions":[5.1181793E-1,4.77691E-1,6.415911E-1,8.45005E-1,6.807171E1,5.4853636E-1,-1.5495515E0,6.3702557E1,-6.8014436E0,3.8146492E1,-3.2175655E0,5.8E0,8.636067E0,-2.5331764E0,1.6498065E0,-1.9264565E-3,2.3359302E-3,-1.6855778E-3,-5.584611E-3,1.4260531E-3,-5.3601764E-4,-0E0,4.082009E-3,1.2644553E-3,-2.387043E-3,3.120212E-3,-3.674159E-3,7.0686257E-3,-6.6673843E-4,-0E0,1.1533351E-2],"split_indices":[0,0,0,4,1,0,3,1,8,1,2,13,3,3,11,0,0,0,0,0,0,0,0,0,0,0,0,0,0,0,0],"split_type":[0,0,0,0,0,0,0,0,0,0,0,0,0,0,0,0,0,0,0,0,0,0,0,0,0,0,0,0,0,0,0],"sum_hessian":[7.6645034E3,5.3921304E3,2.2723728E3,1.5280347E3,3.864096E3,2.208085E3,6.428764E1,1.2447054E3,2.8332925E2,3.698738E3,1.653578E2,1.6564128E3,5.516722E2,3.5632874E1,2.8654766E1,1.1438268E3,1.0087865E2,1.2745579E2,1.5587346E2,2.5105302E2,3.447685E3,3.498321E1,1.3037459E2,1.596653E3,5.9759933E1,5.4071277E2,1.0959407E1,2.7241325E1,8.391548E0,1.3460288E0,2.7308737E1],"tree_param":{"num_deleted":"0","num_feature":"19","num_nodes":"31","size_leaf_vector":"1"}},{"base_weights":[4.2064875E-4,-1.1488797E-1,1.2866634E-1,-2.4769817E-1,-8.251365E-2,8.895771E-2,4.2778197E-1,-2.8507125E-1,1.1734027E-2,-9.665126E-2,2.2042976E-1,3.186959E-1,6.799484E-2,6.817938E-1,3.400735E-1,-2.5600824E-3,-5.95609E-3,2.226485E-3,-6.2491433E-3,1.4141805E-3,-1.0995996E-3,8.234177E-3,7.293153E-4,-1.0601993E-3,5.3055505E-3,1.7947135E-4,1.740027E-3,1.149446E-2,4.961542E-3,2.5053131E-3,7.035352E-3],"categories":[],"categories_nodes":[],"categories_segments":[],"categories_sizes":[],"default_left":[0,0,0,0,0,0,0,0,0,0,0,0,0,0,0,0,0,0,0,0,0,0,0,0,0,0,0,0,0,0,0],"id":28,"left_children":[1,3,5,7,9,11,13,15,17,19,21,23,25,27,29,-1,-1,-1,-1,-1,-1,-1,-1,-1,-1,-1,-1,-1,-1,-1,-1],"loss_changes":[1.1268749E2,1.6861591E1,4.2301666E1,7.8277855E0,1.3758921E1,1.4950506E1,7.8663483E0,5.0155945E0,1.2843731E1,9.796125E0,1.1571798E1,2.4157883E1,1.5363437E1,6.140377E0,9.0734215E0,0E0,0E0,0E0,0E0,0E0,0E0,0E0,0E0,0E0,0E0,0E0,0E0,0E0,0E0,0E0,0E0],"parents":[2147483647,0,0,1,1,2,2,3,3,4,4,5,5,6,6,7,7,8,8,9,9,10,10,11,11,12,12,13,13,14,14],"right_children":[2,4,6,8,10,12,14,16,18,20,22,24,26,28,30,-1,-1,-1,-1,-1,-1,-1,-1,-1,-1,-1,-1,-1,-1,-1,-1],"split_conditions":[4.9814737E-1,4.7016472E-1,5.599675E-1,6.3702557E1,2.6287794E1,3.52207E1,3.8E-1,4.3429023E-1,1.53E0,3.0287474E-1,8.272218E-1,-1.9011253E1,7.5E-1,3.52207E1,6.415911E-1,-2.5600824E-3,-5.95609E-3,2.226485E-3,-6.2491433E-3,1.4141805E-3,-1.0995996E-3,8.234177E-3,7.293153E-4,-1.0601993E-3,5.3055505E-3,1.7947135E-4,1.740027E-3,1.149446E-2,4.961542E-3,2.5053131E-3,7.035352E-3],"split_indices":[0,0,0,1,8,1,15,12,14,11,9,8,14,1,0,0,0,0,0,0,0,0,0,0,0,0,0,0,0,0,0],"split_type":[0,0,0,0,0,0,0,0,0,0,0,0,0,0,0,0,0,0,0,0,0,0,0,0,0,0,0,0,0,0,0],"sum_hessian":[7.6153535E3,4.0059363E3,3.6094175E3,7.764577E2,3.2294785E3,3.1916526E3,4.177649E2,6.818843E2,9.4573456E1,3.0899414E3,1.39537E2,2.6051236E2,2.9311404E3,1.0082326E2,3.1694165E2,6.298098E2,5.207445E1,7.319579E1,2.137766E1,1.5859334E2,2.9313481E3,2.4290415E1,1.1524658E2,8.5463E1,1.7504935E2,1.9991073E3,9.32033E2,2.4168646E1,7.665461E1,2.5921222E2,5.7729427E1],"tree_param":{"num_deleted":"0","num_feature":"19","num_nodes":"31","size_leaf_vector":"1"}},{"base_weights":[-7.6070167E-3,-1.2427406E-1,1.22792445E-1,-1.6664146E-1,-5.5504184E-2,7.784603E-2,2.9110458E-1,-1.8493682E-1,-0E0,-1.0544518E-1,6.067983E-2,1.6657114E-1,2.482734E-2,2.4960214E-1,7.3794476E-3,-1.4952951E-3,-2.9332256E-3,-7.0023275E-4,3.0817383E-3,4.7265133E-4,-1.5594676E-3,1.5553057E-3,-1.5923887E-3,5.064617E-4,2.448792E-3,4.340271E-5,3.6800797E-3,4.30523E-3,1.4145738E-3],"categories":[],"categories_nodes":[],"categories_segments":[],"categories_sizes":[],"default_left":[0,0,0,0,0,0,0,0,0,0,0,0,0,0,0,0,0,0,0,0,0,0,0,0,0,0,0,0,0],"id":29,"left_children":[1,3,5,7,9,11,13,15,17,19,21,23,25,27,-1,-1,-1,-1,-1,-1,-1,-1,-1,-1,-1,-1,-1,-1,-1],"loss_changes":[1.1609643E2,1.1505913E1,2.6816074E1,7.6566086E0,9.044938E0,1.3198944E1,1.2612377E1,8.070663E0,5.444064E0,8.529859E0,9.659764E0,9.283924E0,1.2225731E1,1.289006E1,0E0,0E0,0E0,0E0,0E0,0E0,0E0,0E0,0E0,0E0,0E0,0E0,0E0,0E0,0E0],"parents":[2147483647,0,0,1,1,2,2,3,3,4,4,5,5,6,6,7,7,8,8,9,9,10,10,11,11,12,12,13,13],"right_children":[2,4,6,8,10,12,14,16,18,20,22,24,26,28,-1,-1,-1,-1,-1,-1,-1,-1,-1,-1,-1,-1,-1,-1,-1],"split_conditions":[4.9814737E-1,4.8560068E-1,5.4180706E-1,6.3973E1,3.1736347E-1,-8.7217815E-2,6.415911E-1,1.9050751E0,7.1000924E0,8E-2,8.7E-1,3.7E-1,5.2608395E0,2.233343E0,7.3794476E-3,-1.4952951E-3,-2.9332256E-3,-7.0023275E-4,3.0817383E-3,4.7265133E-4,-1.5594676E-3,1.5553057E-3,-1.5923887E-3,5.064617E-4,2.448792E-3,4.340271E-5,3.6800797E-3,4.30523E-3,1.4145738E-3],"split_indices":[0,0,0,1,4,12,0,6,2,14,15,14,6,10,0,0,0,0,0,0,0,0,0,0,0,0,0,0,0],"split_type":[0,0,0,0,0,0,0,0,0,0,0,0,0,0,0,0,0,0,0,0,0,0,0,0,0,0,0,0,0],"sum_hessian":[7.627133E3,4.0296287E3,3.5975042E3,2.482707E3,1.5469214E3,2.846291E3,7.51213E2,2.2392788E3,2.4342834E2,1.0880302E3,4.5889127E2,1.0559862E3,1.7903048E3,6.922702E2,5.8942818E1,1.6984253E3,5.408535E2,1.9845421E2,4.497413E1,2.6550473E2,8.2252545E2,3.2419775E2,1.3469351E2,4.3221353E2,6.2377264E2,1.6941097E3,9.619512E1,2.5330109E2,4.3896912E2],"tree_param":{"num_deleted":"0","num_feature":"19","num_nodes":"29","size_leaf_vector":"1"}},{"base_weights":[1.1755279E-2,-6.4232476E-2,1.680333E-1,-9.732199E-2,4.870785E-2,1.3363041E-1,5.270489E-1,-1.6440627E-1,-3.175029E-3,3.4289545E-1,2.3316056E-2,1.1095491E-1,4.1468343E-1,-0E0,5.598186E-1,-1.4703359E-3,-5.941387E-3,5.920254E-4,-1.4996834E-3,1.3714397E-3,8.2773175E-3,-2.9757111E-3,4.92653E-4,2.3737864E-3,5.7077495E-4,4.5379056E-3,-3.1154484E-3,-3.708531E-3,4.3420685E-3,8.072683E-3,4.1122218E-3],"categories":[],"categories_nodes":[],"categories_segments":[],"categories_sizes":[],"default_left":[0,0,0,0,0,0,0,0,0,0,0,0,0,0,0,0,0,0,0,0,0,0,0,0,0,0,0,0,0,0,0],"id":30,"left_children":[1,3,5,7,9,11,13,15,17,19,21,23,25,27,29,-1,-1,-1,-1,-1,-1,-1,-1,-1,-1,-1,-1,-1,-1,-1,-1],"loss_changes":[9.077467E1,1.9241825E1,3.0103806E1,2.4953106E1,8.26541E0,1.3967827E1,4.1712494E0,1.6377342E1,1.5338044E1,7.656913E0,8.698565E0,1.4144411E1,5.163357E0,2.3954763E0,5.633293E0,0E0,0E0,0E0,0E0,0E0,0E0,0E0,0E0,0E0,0E0,0E0,0E0,0E0,0E0,0E0,0E0],"parents":[2147483647,0,0,1,1,2,2,3,3,4,4,5,5,6,6,7,7,8,8,9,9,10,10,11,11,12,12,13,13,14,14],"right_children":[2,4,6,8,10,12,14,16,18,20,22,24,26,28,30,-1,-1,-1,-1,-1,-1,-1,-1,-1,-1,-1,-1,-1,-1,-1,-1],"split_conditions":[5.090071E-1,7.8754396E0,5.859181E-1,4.908321E-1,4.8768642E1,1.5684828E1,1.3224672E0,2.1327963E0,9.711492E-1,1.0885429E0,4.620968E-1,4.071502E1,1.464E1,-5.3670526E-1,2.9952164E0,-1.4703359E-3,-5.941387E-3,5.920254E-4,-1.4996834E-3,1.3714397E-3,8.2773175E-3,-2.9757111E-3,4.92653E-4,2.3737864E-3,5.7077495E-4,4.5379056E-3,-3.1154484E-3,-3.708531E-3,4.3420685E-3,8.072683E-3,4.1122218E-3],"split_indices":[0,8,0,0,1,8,10,3,11,9,0,1,13,8,10,0,0,0,0,0,0,0,0,0,0,0,0,0,0,0,0],"split_type":[0,0,0,0,0,0,0,0,0,0,0,0,0,0,0,0,0,0,0,0,0,0,0,0,0,0,0,0,0,0,0],"sum_hessian":[7.631485E3,5.1312656E3,2.500219E3,3.9756128E3,1.155653E3,2.286631E3,2.1358803E2,2.314386E3,1.6612268E3,8.670489E1,1.0689481E3,2.1217915E3,1.6483958E2,1.1190942E1,2.023971E2,2.229275E3,8.511102E1,1.1618834E3,4.9934348E2,6.4121666E1,2.2583221E1,7.552596E1,9.934221E2,6.264498E2,1.4953416E3,1.5843517E2,6.404411E0,7.1867456E0,4.004196E0,7.0088165E1,1.3230893E2],"tree_param":{"num_deleted":"0","num_feature":"19","num_nodes":"31","size_leaf_vector":"1"}},{"base_weights":[-9.97287E-4,2.1518633E-1,-3.77002E-2,3.6027473E-1,8.37546E-2,-5.3658277E-2,2.6091778E-1,3.985637E-1,-2.647674E-1,6.081779E-1,3.323475E-2,-3.050431E-2,-2.4285756E-1,2.0196648E-1,5.7656795E-1,2.9005145E-3,6.339465E-3,2.8797137E-3,-6.809603E-3,-2.274743E-3,6.7570903E-3,5.3380866E-4,-6.031559E-3,2.5970875E-3,-4.102255E-4,-3.2278956E-7,-3.2277543E-3,4.906564E-3,1.0300534E-3,6.4846915E-3,-3.245959E-4],"categories":[],"categories_nodes":[],"categories_segments":[],"categories_sizes":[],"default_left":[0,0,0,0,0,0,0,0,0,0,0,0,0,0,0,0,0,0,0,0,0,0,0,0,0,0,0,0,0,0,0],"id":31,"left_children":[1,3,5,7,9,11,13,15,17,19,21,23,25,27,29,-1,-1,-1,-1,-1,-1,-1,-1,-1,-1,-1,-1,-1,-1,-1,-1],"loss_changes":[6.0451084E1,2.0567879E1,3.0967121E1,1.2813789E1,1.4844315E1,2.6912802E1,5.105486E0,1.13066025E1,7.6332083E0,3.5569096E0,6.4172196E0,1.671128E1,1.2718662E1,7.3829155E0,2.7593145E0,0E0,0E0,0E0,0E0,0E0,0E0,0E0,0E0,0E0,0E0,0E0,0E0,0E0,0E0,0E0,0E0],"parents":[2147483647,0,0,1,1,2,2,3,3,4,4,5,5,6,6,7,7,8,8,9,9,10,10,11,11,12,12,13,13,14,14],"right_children":[2,4,6,8,10,12,14,16,18,20,22,24,26,28,30,-1,-1,-1,-1,-1,-1,-1,-1,-1,-1,-1,-1,-1,-1,-1,-1],"split_conditions":[3.954035E1,8.469962E-1,6.911875E1,3.43E0,-5.692462E-1,7.740787E-1,9.109324E-1,1.98E0,-3.966437E-1,9.6E-1,3.9777198E-1,-3.020421E-1,1.197343E0,9.083617E-1,4.87E0,2.9005145E-3,6.339465E-3,2.8797137E-3,-6.809603E-3,-2.274743E-3,6.7570903E-3,5.3380866E-4,-6.031559E-3,2.5970875E-3,-4.102255E-4,-3.2278956E-7,-3.2277543E-3,4.906564E-3,1.0300534E-3,6.4846915E-3,-3.245959E-4],"split_indices":[1,9,1,15,5,4,12,13,12,13,12,12,6,9,15,0,0,0,0,0,0,0,0,0,0,0,0,0,0,0,0],"split_type":[0,0,0,0,0,0,0,0,0,0,0,0,0,0,0,0,0,0,0,0,0,0,0,0,0,0,0,0,0,0,0],"sum_hessian":[7.6370234E3,1.1030403E3,6.533983E3,5.190103E2,5.840299E2,6.207258E3,3.2672513E2,4.9124225E2,2.7768074E1,4.7639122E1,5.363908E2,5.537227E3,6.7003094E2,2.807412E2,4.5983913E1,3.4219986E2,1.4904239E2,1.1160043E1,1.6608032E1,2.1006122E0,4.553851E1,5.232306E2,1.3160225E1,1.8868501E2,5.348542E3,1.695074E2,5.0052353E2,6.706825E1,2.1367297E2,4.2481075E1,3.5028362E0],"tree_param":{"num_deleted":"0","num_feature":"19","num_nodes":"31","size_leaf_vector":"1"}},{"base_weights":[6.430541E-4,2.1728824E-1,-3.485E-2,4.494597E-1,6.2459692E-2,-5.1591672E-2,2.7170193E-1,4.7363743E-1,-6.010923E-1,3.062538E-1,-7.307099E-2,1.0104621E-1,-7.5850375E-2,3.2916152E-1,-1.6066782E-1,6.391577E-3,3.146072E-3,-9.982711E-3,-0E0,5.2746884E-3,1.9432749E-3,3.6798444E-4,-2.6568952E-3,3.2695879E-3,2.8456358E-4,3.465505E-4,-1.0769574E-3,6.349415E-3,2.6396129E-3,-4.4599953E-3,1.8048437E-3],"categories":[],"categories_nodes":[],"categories_segments":[],"categories_sizes":[],"default_left":[0,0,0,0,0,0,0,0,0,0,0,0,0,0,0,0,0,0,0,0,0,0,0,0,0,0,0,0,0,0,0],"id":32,"left_children":[1,3,5,7,9,11,13,15,17,19,21,23,25,27,29,-1,-1,-1,-1,-1,-1,-1,-1,-1,-1,-1,-1,-1,-1,-1,-1],"loss_changes":[5.897421E1,3.8263573E1,3.3503822E1,1.1345497E1,2.1853413E1,2.3059938E1,8.652182E0,9.743477E0,2.8066967E0,4.924616E0,9.108329E0,1.355864E1,1.9022928E1,4.7542152E0,4.209257E0,0E0,0E0,0E0,0E0,0E0,0E0,0E0,0E0,0E0,0E0,0E0,0E0,0E0,0E0,0E0,0E0],"parents":[2147483647,0,0,1,1,2,2,3,3,4,4,5,5,6,6,7,7,8,8,9,9,10,10,11,11,12,12,13,13,14,14],"right_children":[2,4,6,8,10,12,14,16,18,20,22,24,26,28,30,-1,-1,-1,-1,-1,-1,-1,-1,-1,-1,-1,-1,-1,-1,-1,-1],"split_conditions":[3.954035E1,2.9161956E0,6.911875E1,-2.997023E-1,-5.7549753E0,-6.783564E0,7.754585E0,3.6156746E1,-1.1330794E0,-4.828921E-1,4.7687817E0,-2.5454297E0,1.8709404E0,2.1179237E0,2.7811594E0,6.391577E-3,3.146072E-3,-9.982711E-3,-0E0,5.2746884E-3,1.9432749E-3,3.6798444E-4,-2.6568952E-3,3.2695879E-3,2.8456358E-4,3.465505E-4,-1.0769574E-3,6.349415E-3,2.6396129E-3,-4.4599953E-3,1.8048437E-3],"split_indices":[1,10,1,6,6,2,10,1,3,5,10,6,10,10,2,0,0,0,0,0,0,0,0,0,0,0,0,0,0,0,0],"split_type":[0,0,0,0,0,0,0,0,0,0,0,0,0,0,0,0,0,0,0,0,0,0,0,0,0,0,0,0,0,0,0],"sum_hessian":[7.641851E3,1.0782539E3,6.563597E3,4.2727448E2,6.5097943E2,6.2283735E3,3.3522366E2,4.1966632E2,7.6081424E0,2.3432753E2,4.1665192E2,8.476063E2,5.380767E3,2.9836307E2,3.686059E1,1.9959723E2,2.200691E2,4.2999988E0,3.3081434E0,7.323117E1,1.6109637E2,2.6304028E2,1.5361163E2,2.0106662E2,6.465397E2,1.19667E3,4.184097E3,4.667058E1,2.5169249E2,2.133395E1,1.5526642E1],"tree_param":{"num_deleted":"0","num_feature":"19","num_nodes":"31","size_leaf_vector":"1"}},{"base_weights":[-6.8772607E-3,-7.430883E-2,1.535426E-1,-9.3309E-2,1.0282316E-1,8.7723136E-2,3.309199E-1,-1.2627348E-1,3.7764239E-3,6.1559784E-1,7.399054E-2,2.1791469E-1,3.7226617E-2,2.822599E-1,7.5490614E-3,-1.0808114E-3,-2.5144804E-3,2.2558323E-3,-3.697576E-4,8.562903E-3,-4.103601E-3,-1.0842294E-3,1.4813618E-3,2.9319997E-3,-7.36008E-5,6.665428E-3,2.1269795E-4,3.5261337E-3,1.4961569E-3],"categories":[],"categories_nodes":[],"categories_segments":[],"categories_sizes":[],"default_left":[0,0,0,0,0,0,0,0,0,0,0,0,0,0,0,0,0,0,0,0,0,0,0,0,0,0,0,0,0],"id":33,"left_children":[1,3,5,7,9,11,13,15,17,19,21,23,25,27,-1,-1,-1,-1,-1,-1,-1,-1,-1,-1,-1,-1,-1,-1,-1],"loss_changes":[8.273603E1,1.8164513E1,2.5924034E1,1.5734566E1,6.884048E0,1.061653E1,1.1063492E1,7.896206E0,1.1329575E1,7.440486E0,6.7660704E0,8.039032E0,1.1346707E1,4.524658E0,0E0,0E0,0E0,0E0,0E0,0E0,0E0,0E0,0E0,0E0,0E0,0E0,0E0,0E0,0E0],"parents":[2147483647,0,0,1,1,2,2,3,3,4,4,5,5,6,6,7,7,8,8,9,9,10,10,11,11,12,12,13,13],"right_children":[2,4,6,8,10,12,14,16,18,20,22,24,26,28,-1,-1,-1,-1,-1,-1,-1,-1,-1,-1,-1,-1,-1,-1,-1],"split_conditions":[5.1181793E-1,6.3702557E1,5.4853636E-1,4.9814737E-1,7.9621756E-1,4.1343674E1,6.415911E-1,2.3637683E0,-3.0441358E0,7.553344E0,7.688401E0,1.73E0,-1.3213863E0,1.47E0,7.5490614E-3,-1.0808114E-3,-2.5144804E-3,2.2558323E-3,-3.697576E-4,8.562903E-3,-4.103601E-3,-1.0842294E-3,1.4813618E-3,2.9319997E-3,-7.36008E-5,6.665428E-3,2.1269795E-4,3.5261337E-3,1.4961569E-3],"split_indices":[0,1,0,0,6,1,0,6,7,7,8,15,3,15,0,0,0,0,0,0,0,0,0,0,0,0,0,0,0],"split_type":[0,0,0,0,0,0,0,0,0,0,0,0,0,0,0,0,0,0,0,0,0,0,0,0,0,0,0,0,0],"sum_hessian":[7.651663E3,5.392334E3,2.2593296E3,4.875908E3,5.164254E2,1.6541503E3,6.0517926E2,3.6472249E3,1.2286836E3,2.3478949E1,4.929465E2,4.548944E2,1.1992559E3,5.4797894E2,5.7200325E1,3.1946443E3,4.525805E2,1.9310661E2,1.0355769E3,2.0074797E1,3.404152E0,1.3829669E2,3.5464978E2,3.4382605E2,1.1106835E2,2.6089945E1,1.1731659E3,3.5097092E2,1.97008E2],"tree_param":{"num_deleted":"0","num_feature":"19","num_nodes":"29","size_leaf_vector":"1"}},{"base_weights":[-9.3340356E-4,-7.931914E-2,1.7083475E-1,-1.1218305E-1,2.9395433E-2,1.09903045E-1,3.465992E-1,-2.8377214E-1,-8.51383E-2,5.5487126E-1,1.1762895E-2,2.505231E-1,6.652535E-2,3.0984962E-1,9.021698E-3,-1.7168986E-3,-3.8425818E-3,-2.8141777E-4,-1.5048215E-3,-5.4600183E-3,8.100196E-3,-2.855992E-3,3.7063204E-4,2.77319E-4,4.2885495E-3,1.113552E-3,-5.4891687E-4,4.8396406E-3,2.0851763E-3],"categories":[],"categories_nodes":[],"categories_segments":[],"categories_sizes":[],"default_left":[0,0,0,0,0,0,0,0,0,0,0,0,0,0,0,0,0,0,0,0,0,0,0,0,0,0,0,0,0],"id":34,"left_children":[1,3,5,7,9,11,13,15,17,19,21,23,25,27,-1,-1,-1,-1,-1,-1,-1,-1,-1,-1,-1,-1,-1,-1,-1],"loss_changes":[1.02680405E2,1.8829266E1,2.5039818E1,1.8308067E1,1.0650598E1,1.0508898E1,1.0673653E1,5.4334373E0,1.2824415E1,1.1672252E1,8.624549E0,1.595005E1,7.5188413E0,9.276142E0,0E0,0E0,0E0,0E0,0E0,0E0,0E0,0E0,0E0,0E0,0E0,0E0,0E0,0E0,0E0],"parents":[2147483647,0,0,1,1,2,2,3,3,4,4,5,5,6,6,7,7,8,8,9,9,10,10,11,11,12,12,13,13],"right_children":[2,4,6,8,10,12,14,16,18,20,22,24,26,28,-1,-1,-1,-1,-1,-1,-1,-1,-1,-1,-1,-1,-1,-1,-1],"split_conditions":[5.103686E-1,7.51105E0,5.4853636E-1,4.7016472E-1,-2.6808996E0,-2.9054148E0,6.791716E-1,2E0,4.4E-1,-7.3599567E0,4.6275085E-1,-8.941995E0,7.2E-1,4.9E-1,9.021698E-3,-1.7168986E-3,-3.8425818E-3,-2.8141777E-4,-1.5048215E-3,-5.4600183E-3,8.100196E-3,-2.855992E-3,3.7063204E-4,2.77319E-4,4.2885495E-3,1.113552E-3,-5.4891687E-4,4.8396406E-3,2.0851763E-3],"split_indices":[0,8,0,0,7,7,0,18,15,2,0,8,15,15,0,0,0,0,0,0,0,0,0,0,0,0,0,0,0],"split_type":[0,0,0,0,0,0,0,0,0,0,0,0,0,0,0,0,0,0,0,0,0,0,0,0,0,0,0,0,0],"sum_hessian":[7.628979E3,5.2431743E3,2.3858044E3,4.033117E3,1.2100576E3,1.7782753E3,6.0752905E2,5.415047E2,3.491612E3,3.5466057E1,1.1745917E3,4.1154416E2,1.3667312E3,5.744463E2,3.3082783E1,2.6324716E2,2.7825754E2,1.8746252E3,1.6169869E3,5.506845E0,2.9959211E1,8.738834E1,1.0872032E3,1.864853E2,2.2505884E2,1.0043169E3,3.6241425E2,2.0492009E2,3.695262E2],"tree_param":{"num_deleted":"0","num_feature":"19","num_nodes":"29","size_leaf_vector":"1"}},{"base_weights":[7.866375E-3,-7.032735E-2,1.6829844E-1,-9.442608E-2,6.317451E-2,1.2917824E-1,5.758409E-1,-7.599573E-2,-2.691461E-1,-1.113188E-1,2.1759453E-1,1.2111867E-1,6.5462124E-1,6.0924184E-1,-0E0,-1.0121331E-3,6.552772E-5,-4.014915E-3,-2.3191998E-5,1.7981399E-4,-3.6920335E-3,7.654533E-3,1.8497419E-3,2.3395307E-3,8.0080755E-4,9.498591E-3,-2.5141458E-3,-3.0927525E-3,6.2406925E-3],"categories":[],"categories_nodes":[],"categories_segments":[],"categories_sizes":[],"default_left":[0,0,0,0,0,0,0,0,0,0,0,0,0,0,0,0,0,0,0,0,0,0,0,0,0,0,0,0,0],"id":35,"left_children":[1,3,5,7,9,11,13,15,17,19,21,23,25,27,-1,-1,-1,-1,-1,-1,-1,-1,-1,-1,-1,-1,-1,-1,-1],"loss_changes":[9.6048485E1,1.6574123E1,3.9171387E1,1.3652885E1,2.1186716E1,8.786491E0,4.6409073E0,8.322084E0,1.4074139E1,1.2526495E1,6.233183E0,1.0136955E1,9.829144E0,3.5120316E0,0E0,0E0,0E0,0E0,0E0,0E0,0E0,0E0,0E0,0E0,0E0,0E0,0E0,0E0,0E0],"parents":[2147483647,0,0,1,1,2,2,3,3,4,4,5,5,6,6,7,7,8,8,9,9,10,10,11,11,12,12,13,13],"right_children":[2,4,6,8,10,12,14,16,18,20,22,24,26,28,-1,-1,-1,-1,-1,-1,-1,-1,-1,-1,-1,-1,-1,-1,-1],"split_conditions":[5.090071E-1,6.0906174E1,5.859181E-1,3.0422354E0,4.8346055E-1,7.981913E1,3.0770151E1,4.9814737E-1,1.18E0,8.45005E-1,-4.6761E-1,4.0440563E1,1.1668988E0,7.7555686E-1,-0E0,-1.0121331E-3,6.552772E-5,-4.014915E-3,-2.3191998E-5,1.7981399E-4,-3.6920335E-3,7.654533E-3,1.8497419E-3,2.3395307E-3,8.0080755E-4,9.498591E-3,-2.5141458E-3,-3.0927525E-3,6.2406925E-3],"split_indices":[0,1,0,7,0,1,8,0,14,4,4,1,12,11,0,0,0,0,0,0,0,0,0,0,0,0,0,0,0],"split_type":[0,0,0,0,0,0,0,0,0,0,0,0,0,0,0,0,0,0,0,0,0,0,0,0,0,0,0,0,0],"sum_hessian":[7.644754E3,5.1362593E3,2.5084949E3,4.357714E3,7.785452E2,2.2934346E3,2.1506026E2,3.9496755E3,4.0803836E2,3.6273743E2,4.158078E2,2.2630862E3,3.0348433E1,2.0441579E2,1.0644482E1,3.0343728E3,9.1530273E2,2.6957352E2,1.3846483E2,2.4025789E2,1.22479546E2,1.9118916E1,3.9668887E2,5.9456116E2,1.6685249E3,2.3649166E1,6.699267E0,1.5450437E0,2.0287074E2],"tree_param":{"num_deleted":"0","num_feature":"19","num_nodes":"29","size_leaf_vector":"1"}},{"base_weights":[5.1212185E-3,1.6401346E-1,-2.995958E-2,4.3284324E-1,8.690829E-2,-5.1062632E-2,9.245628E-2,5.986093E-1,2.0573144E-1,1.6255878E-1,-1.0183693E-1,-1.61204E-2,-1.4090121E-1,4.737058E-2,2.9091743E-1,2.5485181E-3,7.1308026E-3,3.6222045E-3,-6.833409E-4,9.5414836E-4,3.3424248E-3,-1.4921459E-3,8.178474E-3,4.3374638E-4,-6.9458364E-4,-1.7764245E-3,2.0238457E-3,2.1888018E-3,-3.510283E-4,-2.9633641E-3,3.3331837E-3],"categories":[],"categories_nodes":[],"categories_segments":[],"categories_sizes":[],"default_left":[0,0,0,0,0,0,0,0,0,0,0,0,0,0,0,0,0,0,0,0,0,0,0,0,0,0,0,0,0,0,0],"id":36,"left_children":[1,3,5,7,9,11,13,15,17,19,21,23,25,27,29,-1,-1,-1,-1,-1,-1,-1,-1,-1,-1,-1,-1,-1,-1,-1,-1],"loss_changes":[4.275748E1,2.8177544E1,1.6136934E1,1.0469353E1,1.5573216E1,1.6623009E1,7.8128676E0,5.487831E0,6.120488E0,8.480246E0,1.2979834E1,1.2280706E1,1.882748E1,1.0826786E1,4.335966E0,0E0,0E0,0E0,0E0,0E0,0E0,0E0,0E0,0E0,0E0,0E0,0E0,0E0,0E0,0E0,0E0],"parents":[2147483647,0,0,1,1,2,2,3,3,4,4,5,5,6,6,7,7,8,8,9,9,10,10,11,11,12,12,13,13,14,14],"right_children":[2,4,6,8,10,12,14,16,18,20,22,24,26,28,30,-1,-1,-1,-1,-1,-1,-1,-1,-1,-1,-1,-1,-1,-1,-1,-1],"split_conditions":[-2.9054148E0,2.745103E0,1.4298633E0,-1.4883548E-1,-4.0016007E-2,7.4E-1,1.5684828E1,-7.6505117E0,4.8E-1,-5.03467E0,5.913195E0,0E0,2.5076275E1,1.9248444E0,5.138278E-1,2.5485181E-3,7.1308026E-3,3.6222045E-3,-6.833409E-4,9.5414836E-4,3.3424248E-3,-1.4921459E-3,8.178474E-3,4.3374638E-4,-6.9458364E-4,-1.7764245E-3,2.0238457E-3,2.1888018E-3,-3.510283E-4,-2.9633641E-3,3.3331837E-3],"split_indices":[7,10,11,12,12,15,8,8,14,8,8,18,8,10,9,0,0,0,0,0,0,0,0,0,0,0,0,0,0,0,0],"split_type":[0,0,0,0,0,0,0,0,0,0,0,0,0,0,0,0,0,0,0,0,0,0,0,0,0,0,0,0,0,0,0],"sum_hessian":[7.642975E3,1.3860885E3,6.2568867E3,3.039968E2,1.0820917E3,5.3448345E3,9.1205194E2,1.7129562E2,1.3270117E2,7.764574E2,3.0563428E2,3.8578389E3,1.4869957E3,7.493365E2,1.6271545E2,4.6585983E1,1.2470965E2,8.638279E1,4.6318382E1,5.645882E2,2.1186916E2,2.9328833E2,1.234595E1,1.8149761E3,2.0428628E3,1.3467352E3,1.4026045E2,2.461878E2,5.0314868E2,8.562502E0,1.5415295E2],"tree_param":{"num_deleted":"0","num_feature":"19","num_nodes":"31","size_leaf_vector":"1"}},{"base_weights":[-2.1632588E-5,-1.09311424E-1,1.22146055E-1,-1.2311564E-1,1.07334405E-1,7.915687E-2,3.3525744E-1,-1.0247578E-1,-2.5036252E-1,-1.0923543E-2,1.3884321E-1,8.232252E-3,1.4329551E-1,2.9290935E-1,6.712281E-3,-2.5291296E-3,-8.246014E-4,-1.024874E-3,-3.9364607E-3,2.7293856E-3,-9.893527E-4,-4.8949074E-5,5.2405414E-3,-1.3830621E-3,1.5896218E-3,4.077787E-3,1.8576069E-3],"categories":[],"categories_nodes":[],"categories_segments":[],"categories_sizes":[],"default_left":[0,0,0,0,0,0,0,0,0,0,0,0,0,0,0,0,0,0,0,0,0,0,0,0,0,0,0],"id":37,"left_children":[1,3,5,7,9,11,13,15,17,-1,19,21,23,25,-1,-1,-1,-1,-1,-1,-1,-1,-1,-1,-1,-1,-1],"loss_changes":[1.0169318E2,1.2079376E1,3.2445168E1,9.54747E0,8.339937E0,1.3474878E1,7.158165E0,9.470562E0,1.0455471E1,0E0,7.6995935E0,1.02224865E1,6.972252E0,5.8731766E0,0E0,0E0,0E0,0E0,0E0,0E0,0E0,0E0,0E0,0E0,0E0,0E0,0E0],"parents":[2147483647,0,0,1,1,2,2,3,3,4,4,5,5,6,6,7,7,8,8,10,10,11,11,12,12,13,13],"right_children":[2,4,6,8,10,12,14,16,18,-1,20,22,24,26,-1,-1,-1,-1,-1,-1,-1,-1,-1,-1,-1,-1,-1],"split_conditions":[4.9814737E-1,6.674428E1,5.4853636E-1,7.391483E-1,-2.116058E0,3.7E-1,6.415911E-1,-2.5331764E0,-5.754292E0,-1.0923543E-2,1.52E0,6.593966E1,2.5292534E-1,7.6E-1,6.712281E-3,-2.5291296E-3,-8.246014E-4,-1.024874E-3,-3.9364607E-3,2.7293856E-3,-9.893527E-4,-4.8949074E-5,5.2405414E-3,-1.3830621E-3,1.5896218E-3,4.077787E-3,1.8576069E-3],"split_indices":[0,1,0,4,4,14,0,3,8,0,14,1,9,15,0,0,0,0,0,0,0,0,0,0,0,0,0],"split_type":[0,0,0,0,0,0,0,0,0,0,0,0,0,0,0,0,0,0,0,0,0,0,0,0,0,0,0],"sum_hessian":[7.6134683E3,4.0229658E3,3.5905027E3,3.7871367E3,2.3582901E2,2.9939858E3,5.965166E2,3.2684526E3,5.186842E2,3.4998438E0,2.3232916E2,1.4302552E3,1.5637307E3,5.3571185E2,6.0804737E1,3.7520276E2,2.89325E3,2.6037503E2,2.5830914E2,1.5105272E2,8.127645E1,1.3948013E3,3.545395E1,7.82228E1,1.4855079E3,2.5132893E2,2.8438293E2],"tree_param":{"num_deleted":"0","num_feature":"19","num_nodes":"27","size_leaf_vector":"1"}},{"base_weights":[-3.6520083E-3,-7.8903355E-2,1.5291166E-1,-1.7575926E-1,-3.8035795E-2,1.0853404E-1,4.0641317E-1,-1.5564047E-1,-4.799528E-1,-5.0584845E-2,1.9783448E-1,3.1206197E-1,8.565742E-2,4.4963658E-1,-8.349091E-2,-2.395618E-3,-7.988561E-4,-7.31878E-3,-1.2861275E-3,-2.2893804E-5,-1.1278635E-3,3.415394E-3,-0E0,4.342845E-3,-3.933154E-3,7.09588E-4,4.8461114E-3,3.882502E-3,7.229083E-3,4.3825037E-3,-3.5178268E-3],"categories":[],"categories_nodes":[],"categories_segments":[],"categories_sizes":[],"default_left":[0,0,0,0,0,0,0,0,0,0,0,0,0,0,0,0,0,0,0,0,0,0,0,0,0,0,0,0,0,0,0],"id":38,"left_children":[1,3,5,7,9,11,13,15,17,19,21,23,25,27,29,-1,-1,-1,-1,-1,-1,-1,-1,-1,-1,-1,-1,-1,-1,-1,-1],"loss_changes":[9.015899E1,2.0264206E1,2.7317513E1,8.568512E0,1.067808E1,9.411324E0,8.184235E0,8.794331E0,6.9852695E0,1.0313628E1,5.36736E0,1.8388882E1,1.0584018E1,4.0009384E0,4.3452516E0,0E0,0E0,0E0,0E0,0E0,0E0,0E0,0E0,0E0,0E0,0E0,0E0,0E0,0E0,0E0,0E0],"parents":[2147483647,0,0,1,1,2,2,3,3,4,4,5,5,6,6,7,7,8,8,9,9,10,10,11,11,12,12,13,13,14,14],"right_children":[2,4,6,8,10,12,14,16,18,20,22,24,26,28,30,-1,-1,-1,-1,-1,-1,-1,-1,-1,-1,-1,-1,-1,-1,-1,-1],"split_conditions":[5.090071E-1,4.77691E-1,5.6499535E-1,4.3429023E-1,6.7200516E1,3.488301E1,7.1584125E0,5.5222875E-1,9.161927E-1,7.663784E-1,1.5E0,3.8E0,7.301869E1,6.415911E-1,1.78E0,-2.395618E-3,-7.988561E-4,-7.31878E-3,-1.2861275E-3,-2.2893804E-5,-1.1278635E-3,3.415394E-3,-0E0,4.342845E-3,-3.933154E-3,7.09588E-4,4.8461114E-3,3.882502E-3,7.229083E-3,4.3825037E-3,-3.5178268E-3],"split_indices":[0,0,0,12,1,1,10,11,11,11,14,15,1,0,15,0,0,0,0,0,0,0,0,0,0,0,0,0,0,0,0],"split_type":[0,0,0,0,0,0,0,0,0,0,0,0,0,0,0,0,0,0,0,0,0,0,0,0,0,0,0,0,0,0,0],"sum_hessian":[7.65474E3,5.174857E3,2.4798833E3,1.5263485E3,3.6485083E3,2.1162214E3,3.6366183E2,1.4375803E3,8.876817E1,3.4697188E3,1.7878943E2,2.0685814E2,1.9093634E3,3.3620465E2,2.7457165E1,6.73714E2,7.638664E2,4.8779114E1,3.9989063E1,1.9634087E3,1.50631E3,1.04671844E2,7.411758E1,1.7817213E2,2.8686012E1,1.846206E3,6.3157307E1,2.8147617E2,5.4728504E1,7.6283064E0,1.982886E1],"tree_param":{"num_deleted":"0","num_feature":"19","num_nodes":"31","size_leaf_vector":"1"}},{"base_weights":[5.9563187E-3,8.719957E-2,-7.5169705E-2,2.7053356E-1,3.4091894E-2,-1.0033467E-1,2.2130205E-1,5.5756783E-1,1.9071554E-1,1.7303167E-1,-0E0,-6.698353E-2,-2.5908956E-1,4.829842E-1,9.9891275E-2,6.4505357E-3,-1.0496888E-3,2.7650062E-3,5.0929575E-5,2.0601298E-3,-1.557904E-3,-2.6519253E-4,1.640576E-3,-9.5402985E-4,8.506462E-4,-2.7970842E-3,2.3007833E-3,2.600491E-3,6.4466842E-3,-4.173237E-3,1.2547238E-3],"categories":[],"categories_nodes":[],"categories_segments":[],"categories_sizes":[],"default_left":[0,0,0,0,0,0,0,0,0,0,0,0,0,0,0,0,0,0,0,0,0,0,0,0,0,0,0,0,0,0,0],"id":39,"left_children":[1,3,5,7,9,11,13,15,17,19,21,23,25,27,29,-1,-1,-1,-1,-1,-1,-1,-1,-1,-1,-1,-1,-1,-1,-1,-1],"loss_changes":[5.0166683E1,3.675486E1,2.828518E1,1.8532253E1,1.412683E1,1.8215736E1,8.691314E0,1.1187389E1,1.0408079E1,6.477358E0,1.0252915E1,1.2589517E1,6.2623405E0,2.0163994E0,2.5464053E0,0E0,0E0,0E0,0E0,0E0,0E0,0E0,0E0,0E0,0E0,0E0,0E0,0E0,0E0,0E0,0E0],"parents":[2147483647,0,0,1,1,2,2,3,3,4,4,5,5,6,6,7,7,8,8,9,9,10,10,11,11,12,12,13,13,14,14],"right_children":[2,4,6,8,10,12,14,16,18,20,22,24,26,28,30,-1,-1,-1,-1,-1,-1,-1,-1,-1,-1,-1,-1,-1,-1,-1,-1],"split_conditions":[1E0,-3.1892943E0,6.807171E1,2.7023232E0,3.4263346E-1,5.238021E-1,9.332997E-1,2.13E0,-2.2613542E0,2.8804716E-2,2.58E0,2.6986227E0,6E0,6.2180537E-1,1.8E-1,6.4505357E-3,-1.0496888E-3,2.7650062E-3,5.0929575E-5,2.0601298E-3,-1.557904E-3,-2.6519253E-4,1.640576E-3,-9.5402985E-4,8.506462E-4,-2.7970842E-3,2.3007833E-3,2.600491E-3,6.4466842E-3,-4.173237E-3,1.2547238E-3],"split_indices":[18,7,1,10,9,4,9,15,2,5,13,7,18,4,13,0,0,0,0,0,0,0,0,0,0,0,0,0,0,0,0],"split_type":[0,0,0,0,0,0,0,0,0,0,0,0,0,0,0,0,0,0,0,0,0,0,0,0,0,0,0,0,0,0,0],"sum_hessian":[7.605645E3,3.8061606E3,3.7994841E3,8.4884155E2,2.957319E3,3.50654E3,2.929442E2,1.793565E2,6.6948505E2,5.8471814E2,2.372601E3,2.9053323E3,6.012077E2,8.8342636E1,2.0460158E2,1.5981554E2,1.9540968E1,4.5352365E2,2.1596141E2,5.348592E2,4.985897E1,2.0472074E3,3.2539368E2,2.4539788E3,4.513535E2,5.796746E2,2.1533094E1,4.1929977E1,4.641266E1,6.3568068E0,1.9824477E2],"tree_param":{"num_deleted":"0","num_feature":"19","num_nodes":"31","size_leaf_vector":"1"}},{"base_weights":[6.2660463E-3,-6.430454E-2,1.53661E-1,-1.0646949E-1,7.534142E-3,1.2243699E-1,4.716399E-1,-1.4262997E-1,7.2318385E-3,-9.758603E-3,3.2006803E-1,7.66155E-2,2.0693521E-1,-1.281878E-1,5.2686924E-1,-1.2132869E-3,-6.7820554E-3,2.2590607E-3,-8.60136E-4,-3.3298577E-3,1.9203417E-5,1.3286567E-2,2.0486068E-3,3.0641403E-4,2.2500055E-3,-2.1431295E-5,2.5072698E-3,-7.749618E-3,1.8838501E-3,6.752264E-3,3.2775349E-3],"categories":[],"categories_nodes":[],"categories_segments":[],"categories_sizes":[],"default_left":[0,0,0,0,0,0,0,0,0,0,0,0,0,0,0,0,0,0,0,0,0,0,0,0,0,0,0,0,0,0,0],"id":40,"left_children":[1,3,5,7,9,11,13,15,17,19,21,23,25,27,29,-1,-1,-1,-1,-1,-1,-1,-1,-1,-1,-1,-1,-1,-1,-1,-1],"loss_changes":[7.875089E1,1.5577354E1,2.3645405E1,1.3411724E1,1.0492534E1,8.354725E0,7.6818657E0,2.7058609E1,1.5966209E1,7.06323E0,9.751916E0,9.709304E0,7.37743E0,4.620232E0,4.4476204E0,0E0,0E0,0E0,0E0,0E0,0E0,0E0,0E0,0E0,0E0,0E0,0E0,0E0,0E0,0E0,0E0],"parents":[2147483647,0,0,1,1,2,2,3,3,4,4,5,5,6,6,7,7,8,8,9,9,10,10,11,11,12,12,13,13,14,14],"right_children":[2,4,6,8,10,12,14,16,18,20,22,24,26,28,30,-1,-1,-1,-1,-1,-1,-1,-1,-1,-1,-1,-1,-1,-1,-1,-1],"split_conditions":[5.090071E-1,4.9174526E-1,5.859181E-1,8.276756E0,6.2030225E0,7.3E-1,1.87E0,2.1968937E0,6.0383034E-1,-1.0488022E1,1.7E-1,5.4180706E-1,-2.577659E-1,-1.161233E0,2.18E0,-1.2132869E-3,-6.7820554E-3,2.2590607E-3,-8.60136E-4,-3.3298577E-3,1.9203417E-5,1.3286567E-2,2.0486068E-3,3.0641403E-4,2.2500055E-3,-2.1431295E-5,2.5072698E-3,-7.749618E-3,1.8838501E-3,6.752264E-3,3.2775349E-3],"split_indices":[0,0,0,8,7,14,13,3,6,2,14,0,5,8,15,0,0,0,0,0,0,0,0,0,0,0,0,0,0,0,0],"split_type":[0,0,0,0,0,0,0,0,0,0,0,0,0,0,0,0,0,0,0,0,0,0,0,0,0,0,0,0,0,0,0],"sum_hessian":[7.558438E3,5.107421E3,2.4510168E3,3.226574E3,1.880847E3,2.2372449E3,2.1377182E2,2.4543137E3,7.7226013E2,1.7810387E3,9.9808365E1,1.460757E3,7.76488E2,1.6274252E1,1.9749757E2,2.364588E3,8.9725746E1,2.3321523E2,5.390449E2,6.317602E1,1.7178627E3,7.182585E0,9.262578E1,1.122214E3,3.38543E2,1.3084616E2,6.456418E2,5.434396E0,1.0839857E1,1.07555595E2,8.994198E1],"tree_param":{"num_deleted":"0","num_feature":"19","num_nodes":"31","size_leaf_vector":"1"}},{"base_weights":[-8.002651E-3,1.2709403E-1,-4.4136617E-2,2.567137E-1,4.1552443E-2,2.055881E-2,-8.097935E-2,3.5241264E-1,6.909721E-2,6.701058E-1,2.502707E-2,1.1223094E-1,-5.360251E-2,-1.2321471E-1,2.7585045E-2,6.5288073E-3,2.174146E-3,-0E0,4.6601812E-3,9.225652E-3,-1.9869134E-3,-4.7130277E-3,3.8458424E-4,3.160497E-3,6.9670915E-4,3.1090935E-3,-8.0473814E-4,-1.0615428E-3,-3.7771722E-3,-2.1413185E-4,2.2290342E-3],"categories":[],"categories_nodes":[],"categories_segments":[],"categories_sizes":[],"default_left":[0,0,0,0,0,0,0,0,0,0,0,0,0,0,0,0,0,0,0,0,0,0,0,0,0,0,0,0,0,0,0],"id":41,"left_children":[1,3,5,7,9,11,13,15,17,19,21,23,25,27,29,-1,-1,-1,-1,-1,-1,-1,-1,-1,-1,-1,-1,-1,-1,-1,-1],"loss_changes":[3.7166695E1,1.7470339E1,1.442684E1,1.0892368E1,9.384224E0,1.4879374E1,1.7754211E1,1.5681927E1,5.7212253E0,6.2039986E0,5.951737E0,8.078103E0,1.1567989E1,1.14998665E1,1.0481892E1,0E0,0E0,0E0,0E0,0E0,0E0,0E0,0E0,0E0,0E0,0E0,0E0,0E0,0E0,0E0,0E0],"parents":[2147483647,0,0,1,1,2,2,3,3,4,4,5,5,6,6,7,7,8,8,9,9,10,10,11,11,12,12,13,13,14,14],"right_children":[2,4,6,8,10,12,14,16,18,20,22,24,26,28,30,-1,-1,-1,-1,-1,-1,-1,-1,-1,-1,-1,-1,-1,-1,-1,-1],"split_conditions":[-1.5754056E0,-7.8943586E0,2.233343E0,-2.9054148E0,1.6358652E0,-1.9377361E-3,9.612227E0,2.7898772E0,-1.7267708E0,-3.4160614E-1,3.0287474E-1,-4.230717E-1,-4.9223123E0,2.2541094E0,1.4844755E0,6.5288073E-3,2.174146E-3,-0E0,4.6601812E-3,9.225652E-3,-1.9869134E-3,-4.7130277E-3,3.8458424E-4,3.160497E-3,6.9670915E-4,3.1090935E-3,-8.0473814E-4,-1.0615428E-3,-3.7771722E-3,-2.1413185E-4,2.2290342E-3],"split_indices":[6,2,10,7,10,5,8,10,6,3,11,3,8,3,11,0,0,0,0,0,0,0,0,0,0,0,0,0,0,0,0],"split_type":[0,0,0,0,0,0,0,0,0,0,0,0,0,0,0,0,0,0,0,0,0,0,0,0,0,0,0,0,0,0,0],"sum_hessian":[7.626358E3,1.6024506E3,6.0239077E3,6.308469E2,9.716037E2,2.176224E3,3.8476836E3,4.13065E2,2.177819E2,2.1313604E1,9.502901E2,9.7878625E2,1.1974377E3,2.7764775E3,1.071206E3,1.233786E2,2.8968643E2,1.8860603E2,2.9175884E1,1.7310635E1,4.00297E0,2.1280437E1,9.2900964E2,1.627989E2,8.1598737E2,7.820634E1,1.1192314E3,2.6083892E3,1.6808846E2,8.5370386E2,2.1750215E2],"tree_param":{"num_deleted":"0","num_feature":"19","num_nodes":"31","size_leaf_vector":"1"}},{"base_weights":[-8.396013E-3,-8.590286E-2,1.4485914E-1,-1.3608499E-1,-2.0198047E-3,1.284619E-1,7.8027695E-1,-1.7565118E-1,-2.1067526E-2,-2.5199533E-2,2.2981681E-1,6.9123864E-2,2.3577127E-1,-2.647284E-4,8.1845963E-1,-1.5631081E-3,-7.1849516E-3,3.7336864E-3,-8.076371E-4,1.5513237E-3,-6.739175E-4,-3.0746656E-3,3.0699451E-3,5.4348406E-4,5.7433406E-3,-3.6977972E-3,2.5144087E-3,1.0446784E-2,4.6125744E-3],"categories":[],"categories_nodes":[],"categories_segments":[],"categories_sizes":[],"default_left":[0,0,0,0,0,0,0,0,0,0,0,0,0,0,0,0,0,0,0,0,0,0,0,0,0,0,0,0,0],"id":42,"left_children":[1,3,5,7,9,11,13,15,17,19,21,23,25,-1,27,-1,-1,-1,-1,-1,-1,-1,-1,-1,-1,-1,-1,-1,-1],"loss_changes":[9.0987274E1,2.1306988E1,2.5669388E1,1.4268265E1,1.0105958E1,1.5641304E1,2.7675552E0,2.3672127E1,1.9139742E1,1.3233046E1,7.2572775E0,1.1436973E1,8.481266E0,0E0,2.4706802E0,0E0,0E0,0E0,0E0,0E0,0E0,0E0,0E0,0E0,0E0,0E0,0E0,0E0,0E0],"parents":[2147483647,0,0,1,1,2,2,3,3,4,4,5,5,6,6,7,7,8,8,9,9,10,10,11,11,12,12,14,14],"right_children":[2,4,6,8,10,12,14,16,18,20,22,24,26,-1,28,-1,-1,-1,-1,-1,-1,-1,-1,-1,-1,-1,-1,-1,-1],"split_conditions":[5.0837004E-1,4.9103585E-1,6.415911E-1,7.51105E0,4.520985E0,7.1E-1,1.6498065E0,2.1968937E0,2.8637214E-2,-1.2110463E0,1.0885905E0,6.763765E1,2.3352014E-1,-2.647284E-4,4.5332117E0,-1.5631081E-3,-7.1849516E-3,3.7336864E-3,-8.076371E-4,1.5513237E-3,-6.739175E-4,-3.0746656E-3,3.0699451E-3,5.4348406E-4,5.7433406E-3,-3.6977972E-3,2.5144087E-3,1.0446784E-2,4.6125744E-3],"split_indices":[0,0,0,8,7,14,11,3,7,3,3,1,9,0,11,0,0,0,0,0,0,0,0,0,0,0,0,0,0],"split_type":[0,0,0,0,0,0,0,0,0,0,0,0,0,0,0,0,0,0,0,0,0,0,0,0,0,0,0,0,0],"sum_hessian":[7.660811E3,5.0926646E3,2.5681465E3,3.178184E3,1.9144803E3,2.5074197E3,6.0726963E1,2.3574644E3,8.2071985E2,1.7460054E3,1.6847493E2,1.6227224E3,8.8469714E2,1.5884564E0,5.9138508E1,2.2806284E3,7.683584E1,1.0430109E2,7.1641876E2,3.255465E2,1.4204589E3,1.8783834E1,1.496911E2,1.580688E3,4.2034515E1,1.9565739E1,8.6513135E2,3.2137085E1,2.7001421E1],"tree_param":{"num_deleted":"0","num_feature":"19","num_nodes":"29","size_leaf_vector":"1"}},{"base_weights":[-5.0603757E-3,-1.0529231E-1,1.0663809E-1,-1.3538899E-1,5.325143E-2,2.7597317E-1,4.865374E-2,-1.2147845E-1,-3.6247116E-1,-4.2262632E-2,1.834223E-1,4.851581E-1,1.6819753E-1,2.7861694E-2,3.278753E-1,-1.092557E-3,-3.777371E-3,-4.451498E-3,2.2648356E-3,2.3017167E-4,-5.5859825E-3,2.521958E-3,-1.6975477E-3,6.4365244E-3,2.1274723E-3,1.2580843E-3,6.5993434E-3,8.648634E-4,-8.997232E-4,3.7393796E-3,-2.4115536E-3],"categories":[],"categories_nodes":[],"categories_segments":[],"categories_sizes":[],"default_left":[0,0,0,0,0,0,0,0,0,0,0,0,0,0,0,0,0,0,0,0,0,0,0,0,0,0,0,0,0,0,0],"id":43,"left_children":[1,3,5,7,9,11,13,15,17,19,21,23,25,27,29,-1,-1,-1,-1,-1,-1,-1,-1,-1,-1,-1,-1,-1,-1,-1,-1],"loss_changes":[8.549173E1,1.9323166E1,3.506341E1,1.014386E1,8.1014185E0,1.9816742E1,1.5264195E1,9.465038E0,9.704048E0,1.2889592E1,6.853462E0,1.21237335E1,1.1767895E1,1.7368275E1,5.1139774E0,0E0,0E0,0E0,0E0,0E0,0E0,0E0,0E0,0E0,0E0,0E0,0E0,0E0,0E0,0E0,0E0],"parents":[2147483647,0,0,1,1,2,2,3,3,4,4,5,5,6,6,7,7,8,8,9,9,10,10,11,11,12,12,13,13,14,14],"right_children":[2,4,6,8,10,12,14,16,18,20,22,24,26,28,30,-1,-1,-1,-1,-1,-1,-1,-1,-1,-1,-1,-1,-1,-1,-1,-1],"split_conditions":[4.9814737E-1,6.0906174E1,-2.9054148E0,1.153956E1,4.8346055E-1,2.901148E0,6.911875E1,4.1763453E0,4.912699E-1,2.23E0,1E0,3.7225952E1,6.415911E-1,5.9E-1,4.05E0,-1.092557E-3,-3.777371E-3,-4.451498E-3,2.2648356E-3,2.3017167E-4,-5.5859825E-3,2.521958E-3,-1.6975477E-3,6.4365244E-3,2.1274723E-3,1.2580843E-3,6.5993434E-3,8.648634E-4,-8.997232E-4,3.7393796E-3,-2.4115536E-3],"split_indices":[0,1,7,2,0,10,1,7,0,14,16,1,0,15,15,0,0,0,0,0,0,0,0,0,0,0,0,0,0,0,0],"split_type":[0,0,0,0,0,0,0,0,0,0,0,0,0,0,0,0,0,0,0,0,0,0,0,0,0,0,0,0,0,0,0],"sum_hessian":[7.6322007E3,4.02735E3,3.6048508E3,3.3903523E3,6.369978E2,9.132037E2,2.691647E3,3.2016973E3,1.88655E2,3.6375656E2,2.7324124E2,3.0497913E2,6.0822455E2,2.5104863E3,1.8116074E2,3.062386E3,1.3931139E2,1.6734856E2,2.1306456E1,3.22906E2,4.0850563E1,2.3155438E2,4.1686867E1,1.8875877E2,1.16220345E2,5.6413947E2,4.4085106E1,1.6824529E3,8.2803345E2,1.6985422E2,1.130652E1],"tree_param":{"num_deleted":"0","num_feature":"19","num_nodes":"31","size_leaf_vector":"1"}},{"base_weights":[-3.5246944E-3,-4.7788717E-2,1.4845344E-1,1.2883281E-2,-1.08518586E-1,4.086144E-1,8.373815E-2,5.0955433E-2,-1.0667102E-1,-1.271193E-1,3.2893306E-1,5.038665E-1,9.6784E-2,6.45792E-2,4.7817698E-1,1.8085691E-3,2.8084544E-4,1.3338247E-3,-2.0204664E-3,-1.0001225E-3,-4.2815707E-3,3.9249505E-3,-3.626335E-3,2.5687437E-3,6.817859E-3,-3.14946E-3,1.8695164E-3,1.0334091E-3,-1.0962458E-3,5.6592617E-3,-7.896703E-4],"categories":[],"categories_nodes":[],"categories_segments":[],"categories_sizes":[],"default_left":[0,0,0,0,0,0,0,0,0,0,0,0,0,0,0,0,0,0,0,0,0,0,0,0,0,0,0,0,0,0,0],"id":44,"left_children":[1,3,5,7,9,11,13,15,17,19,21,23,25,27,29,-1,-1,-1,-1,-1,-1,-1,-1,-1,-1,-1,-1,-1,-1,-1,-1],"loss_changes":[5.1010544E1,2.1796978E1,2.8206665E1,1.3334591E1,2.3898201E1,9.30468E0,9.7779255E0,6.427435E0,1.6247185E1,2.2518757E1,5.534336E0,9.918602E0,3.0982752E0,8.895605E0,3.5542402E0,0E0,0E0,0E0,0E0,0E0,0E0,0E0,0E0,0E0,0E0,0E0,0E0,0E0,0E0,0E0,0E0],"parents":[2147483647,0,0,1,1,2,2,3,3,4,4,5,5,6,6,7,7,8,8,9,9,10,10,11,11,12,12,13,13,14,14],"right_children":[2,4,6,8,10,12,14,16,18,20,22,24,26,28,30,-1,-1,-1,-1,-1,-1,-1,-1,-1,-1,-1,-1,-1,-1,-1,-1],"split_conditions":[1.2572242E0,1E0,-9.493847E0,9.5E-1,6.807171E1,-2.1602323E0,7.7219376E1,4.0579357E1,-3.2528968E0,8.663477E-1,5.9905056E1,-1.267798E0,3E-2,6.9281983E-1,5.9905056E1,1.8085691E-3,2.8084544E-4,1.3338247E-3,-2.0204664E-3,-1.0001225E-3,-4.2815707E-3,3.9249505E-3,-3.626335E-3,2.5687437E-3,6.817859E-3,-3.14946E-3,1.8695164E-3,1.0334091E-3,-1.0962458E-3,5.6592617E-3,-7.896703E-4],"split_indices":[11,18,2,15,1,7,1,1,7,4,8,3,15,4,8,0,0,0,0,0,0,0,0,0,0,0,0,0,0,0,0],"split_type":[0,0,0,0,0,0,0,0,0,0,0,0,0,0,0,0,0,0,0,0,0,0,0,0,0,0,0,0,0,0,0],"sum_hessian":[7.593626E3,5.8869795E3,1.7066469E3,2.9374438E3,2.9495354E3,3.347686E2,1.3718783E3,2.2351658E3,7.0227814E2,2.8327883E3,1.1674712E2,2.5303705E2,8.173153E1,1.3129667E3,5.891158E1,3.2600302E2,1.9091627E3,1.9647725E2,5.0580087E2,2.6042722E3,2.2851624E2,1.0903646E2,7.7106586E0,1.1035191E2,1.4268513E2,1.1795199E1,6.993633E1,1.0793555E3,2.3361113E2,5.2419018E1,6.4925613E0],"tree_param":{"num_deleted":"0","num_feature":"19","num_nodes":"31","size_leaf_vector":"1"}},{"base_weights":[1.1368874E-3,-7.330076E-2,1.4946039E-1,-1.1491401E-1,-3.3134795E-3,9.5968515E-2,3.2020208E-1,-8.9767665E-2,-2.5836587E-1,-2.8940799E-2,2.5435194E-1,7.92803E-2,3.0486703E-1,4.012609E-1,1.945321E-1,1.0132552E-3,-1.0598061E-3,-3.0480954E-3,1.1592358E-3,1.9632408E-4,-1.4225203E-3,3.9555836E-3,-2.9500078E-3,8.8200066E-4,-4.4769505E-3,4.315553E-3,-5.454322E-4,6.4136046E-3,2.2496523E-3,-4.383591E-4,3.6745854E-3],"categories":[],"categories_nodes":[],"categories_segments":[],"categories_sizes":[],"default_left":[0,0,0,0,0,0,0,0,0,0,0,0,0,0,0,0,0,0,0,0,0,0,0,0,0,0,0,0,0,0,0],"id":45,"left_children":[1,3,5,7,9,11,13,15,17,19,21,23,25,27,29,-1,-1,-1,-1,-1,-1,-1,-1,-1,-1,-1,-1,-1,-1,-1,-1],"loss_changes":[8.448896E1,1.4694096E1,2.289716E1,1.1079052E1,1.23854E1,6.38669E0,5.4132156E0,8.438522E0,8.384514E0,9.706715E0,1.3461935E1,8.2673855E0,6.7790947E0,1.4133736E1,1.0497042E1,0E0,0E0,0E0,0E0,0E0,0E0,0E0,0E0,0E0,0E0,0E0,0E0,0E0,0E0,0E0,0E0],"parents":[2147483647,0,0,1,1,2,2,3,3,4,4,5,5,6,6,7,7,8,8,9,9,10,10,11,11,12,12,13,13,14,14],"right_children":[2,4,6,8,10,12,14,16,18,20,22,24,26,28,30,-1,-1,-1,-1,-1,-1,-1,-1,-1,-1,-1,-1,-1,-1,-1,-1],"split_conditions":[5.0837004E-1,4.9103585E-1,5.4853636E-1,8.45005E-1,1.502346E0,1.4658836E-1,1.47E0,3.1007984E-1,2.6287794E1,9.895539E-1,3.85E0,5.8E0,1.6799332E1,-2.703495E-1,2.2335153E0,1.0132552E-3,-1.0598061E-3,-3.0480954E-3,1.1592358E-3,1.9632408E-4,-1.4225203E-3,3.9555836E-3,-2.9500078E-3,8.8200066E-4,